digraph Tree {
node [shape=box, fontname="helvetica"] ;
edge [fontname="helvetica"] ;
0 [label="X[5] <= 0.5\nentropy = 0.807\nsamples = 42449\nvalue = [31939, 10510]"] ;
1 [label="X[4] <= 12.5\nentropy = 0.994\nsamples = 19757\nvalue = [10797, 8960]"] ;
0 -> 1 [labeldistance=2.5, labelangle=45, headlabel="True"] ;
2 [label="X[10] <= 0.051\nentropy = 0.922\nsamples = 13905\nvalue = [9211, 4694]"] ;
1 -> 2 ;
3 [label="X[3] <= 7.5\nentropy = 0.887\nsamples = 13222\nvalue = [9198, 4024]"] ;
2 -> 3 ;
4 [label="X[12] <= 0.434\nentropy = 0.486\nsamples = 2134\nvalue = [1909, 225]"] ;
3 -> 4 ;
5 [label="X[0] <= 0.281\nentropy = 0.401\nsamples = 1606\nvalue = [1478, 128]"] ;
4 -> 5 ;
6 [label="X[0] <= 0.212\nentropy = 0.198\nsamples = 555\nvalue = [538, 17]"] ;
5 -> 6 ;
7 [label="X[6] <= 0.5\nentropy = 0.26\nsamples = 364\nvalue = [348, 16]"] ;
6 -> 7 ;
8 [label="X[0] <= 0.185\nentropy = 1.0\nsamples = 4\nvalue = [2, 2]"] ;
7 -> 8 ;
9 [label="entropy = 0.0\nsamples = 2\nvalue = [2, 0]"] ;
8 -> 9 ;
10 [label="entropy = 0.0\nsamples = 2\nvalue = [0, 2]"] ;
8 -> 10 ;
11 [label="X[2] <= 0.114\nentropy = 0.237\nsamples = 360\nvalue = [346, 14]"] ;
7 -> 11 ;
12 [label="X[2] <= 0.061\nentropy = 0.398\nsamples = 127\nvalue = [117, 10]"] ;
11 -> 12 ;
13 [label="entropy = 0.0\nsamples = 40\nvalue = [40, 0]"] ;
12 -> 13 ;
14 [label="X[13] <= 24.5\nentropy = 0.515\nsamples = 87\nvalue = [77, 10]"] ;
12 -> 14 ;
15 [label="X[2] <= 0.113\nentropy = 0.454\nsamples = 84\nvalue = [76, 8]"] ;
14 -> 15 ;
16 [label="X[2] <= 0.07\nentropy = 0.381\nsamples = 81\nvalue = [75, 6]"] ;
15 -> 16 ;
17 [label="entropy = 0.0\nsamples = 20\nvalue = [20, 0]"] ;
16 -> 17 ;
18 [label="X[13] <= 21.5\nentropy = 0.464\nsamples = 61\nvalue = [55, 6]"] ;
16 -> 18 ;
19 [label="X[2] <= 0.071\nentropy = 0.414\nsamples = 60\nvalue = [55, 5]"] ;
18 -> 19 ;
20 [label="entropy = 0.0\nsamples = 1\nvalue = [0, 1]"] ;
19 -> 20 ;
21 [label="X[3] <= 6.5\nentropy = 0.358\nsamples = 59\nvalue = [55, 4]"] ;
19 -> 21 ;
22 [label="X[6] <= 1.5\nentropy = 0.229\nsamples = 54\nvalue = [52, 2]"] ;
21 -> 22 ;
23 [label="X[11] <= 0.218\nentropy = 0.503\nsamples = 18\nvalue = [16, 2]"] ;
22 -> 23 ;
24 [label="X[1] <= 0.5\nentropy = 0.323\nsamples = 17\nvalue = [16, 1]"] ;
23 -> 24 ;
25 [label="entropy = 0.0\nsamples = 13\nvalue = [13, 0]"] ;
24 -> 25 ;
26 [label="X[3] <= 4.5\nentropy = 0.811\nsamples = 4\nvalue = [3, 1]"] ;
24 -> 26 ;
27 [label="entropy = 0.0\nsamples = 3\nvalue = [3, 0]"] ;
26 -> 27 ;
28 [label="entropy = 0.0\nsamples = 1\nvalue = [0, 1]"] ;
26 -> 28 ;
29 [label="entropy = 0.0\nsamples = 1\nvalue = [0, 1]"] ;
23 -> 29 ;
30 [label="entropy = 0.0\nsamples = 36\nvalue = [36, 0]"] ;
22 -> 30 ;
31 [label="X[2] <= 0.078\nentropy = 0.971\nsamples = 5\nvalue = [3, 2]"] ;
21 -> 31 ;
32 [label="entropy = 0.0\nsamples = 2\nvalue = [2, 0]"] ;
31 -> 32 ;
33 [label="X[0] <= 0.178\nentropy = 0.918\nsamples = 3\nvalue = [1, 2]"] ;
31 -> 33 ;
34 [label="entropy = 0.0\nsamples = 2\nvalue = [0, 2]"] ;
33 -> 34 ;
35 [label="entropy = 0.0\nsamples = 1\nvalue = [1, 0]"] ;
33 -> 35 ;
36 [label="entropy = 0.0\nsamples = 1\nvalue = [0, 1]"] ;
18 -> 36 ;
37 [label="X[13] <= 11.0\nentropy = 0.918\nsamples = 3\nvalue = [1, 2]"] ;
15 -> 37 ;
38 [label="entropy = 0.0\nsamples = 2\nvalue = [0, 2]"] ;
37 -> 38 ;
39 [label="entropy = 0.0\nsamples = 1\nvalue = [1, 0]"] ;
37 -> 39 ;
40 [label="X[3] <= 5.5\nentropy = 0.918\nsamples = 3\nvalue = [1, 2]"] ;
14 -> 40 ;
41 [label="entropy = 0.0\nsamples = 2\nvalue = [0, 2]"] ;
40 -> 41 ;
42 [label="entropy = 0.0\nsamples = 1\nvalue = [1, 0]"] ;
40 -> 42 ;
43 [label="X[1] <= 0.5\nentropy = 0.125\nsamples = 233\nvalue = [229, 4]"] ;
11 -> 43 ;
44 [label="X[3] <= 5.5\nentropy = 0.076\nsamples = 217\nvalue = [215, 2]"] ;
43 -> 44 ;
45 [label="entropy = 0.0\nsamples = 141\nvalue = [141, 0]"] ;
44 -> 45 ;
46 [label="X[2] <= 0.159\nentropy = 0.176\nsamples = 76\nvalue = [74, 2]"] ;
44 -> 46 ;
47 [label="entropy = 0.0\nsamples = 34\nvalue = [34, 0]"] ;
46 -> 47 ;
48 [label="X[2] <= 0.161\nentropy = 0.276\nsamples = 42\nvalue = [40, 2]"] ;
46 -> 48 ;
49 [label="X[0] <= 0.116\nentropy = 1.0\nsamples = 2\nvalue = [1, 1]"] ;
48 -> 49 ;
50 [label="entropy = 0.0\nsamples = 1\nvalue = [1, 0]"] ;
49 -> 50 ;
51 [label="entropy = 0.0\nsamples = 1\nvalue = [0, 1]"] ;
49 -> 51 ;
52 [label="X[0] <= 0.199\nentropy = 0.169\nsamples = 40\nvalue = [39, 1]"] ;
48 -> 52 ;
53 [label="entropy = 0.0\nsamples = 37\nvalue = [37, 0]"] ;
52 -> 53 ;
54 [label="X[2] <= 0.221\nentropy = 0.918\nsamples = 3\nvalue = [2, 1]"] ;
52 -> 54 ;
55 [label="entropy = 0.0\nsamples = 2\nvalue = [2, 0]"] ;
54 -> 55 ;
56 [label="entropy = 0.0\nsamples = 1\nvalue = [0, 1]"] ;
54 -> 56 ;
57 [label="X[6] <= 6.0\nentropy = 0.544\nsamples = 16\nvalue = [14, 2]"] ;
43 -> 57 ;
58 [label="entropy = 0.0\nsamples = 11\nvalue = [11, 0]"] ;
57 -> 58 ;
59 [label="X[0] <= 0.158\nentropy = 0.971\nsamples = 5\nvalue = [3, 2]"] ;
57 -> 59 ;
60 [label="entropy = 0.0\nsamples = 2\nvalue = [0, 2]"] ;
59 -> 60 ;
61 [label="entropy = 0.0\nsamples = 3\nvalue = [3, 0]"] ;
59 -> 61 ;
62 [label="X[0] <= 0.267\nentropy = 0.047\nsamples = 191\nvalue = [190, 1]"] ;
6 -> 62 ;
63 [label="entropy = 0.0\nsamples = 158\nvalue = [158, 0]"] ;
62 -> 63 ;
64 [label="X[2] <= 0.069\nentropy = 0.196\nsamples = 33\nvalue = [32, 1]"] ;
62 -> 64 ;
65 [label="X[2] <= 0.066\nentropy = 0.65\nsamples = 6\nvalue = [5, 1]"] ;
64 -> 65 ;
66 [label="entropy = 0.0\nsamples = 5\nvalue = [5, 0]"] ;
65 -> 66 ;
67 [label="entropy = 0.0\nsamples = 1\nvalue = [0, 1]"] ;
65 -> 67 ;
68 [label="entropy = 0.0\nsamples = 27\nvalue = [27, 0]"] ;
64 -> 68 ;
69 [label="X[3] <= 4.5\nentropy = 0.487\nsamples = 1051\nvalue = [940, 111]"] ;
5 -> 69 ;
70 [label="X[12] <= 0.24\nentropy = 0.333\nsamples = 587\nvalue = [551, 36]"] ;
69 -> 70 ;
71 [label="entropy = 0.0\nsamples = 67\nvalue = [67, 0]"] ;
70 -> 71 ;
72 [label="X[6] <= 3.5\nentropy = 0.363\nsamples = 520\nvalue = [484, 36]"] ;
70 -> 72 ;
73 [label="X[0] <= 0.719\nentropy = 0.518\nsamples = 155\nvalue = [137, 18]"] ;
72 -> 73 ;
74 [label="X[0] <= 0.486\nentropy = 0.471\nsamples = 149\nvalue = [134, 15]"] ;
73 -> 74 ;
75 [label="X[0] <= 0.322\nentropy = 0.31\nsamples = 72\nvalue = [68, 4]"] ;
74 -> 75 ;
76 [label="X[12] <= 0.352\nentropy = 0.65\nsamples = 18\nvalue = [15, 3]"] ;
75 -> 76 ;
77 [label="entropy = 0.0\nsamples = 1\nvalue = [0, 1]"] ;
76 -> 77 ;
78 [label="X[2] <= 0.273\nentropy = 0.523\nsamples = 17\nvalue = [15, 2]"] ;
76 -> 78 ;
79 [label="X[2] <= 0.102\nentropy = 0.337\nsamples = 16\nvalue = [15, 1]"] ;
78 -> 79 ;
80 [label="X[0] <= 0.308\nentropy = 0.722\nsamples = 5\nvalue = [4, 1]"] ;
79 -> 80 ;
81 [label="entropy = 0.0\nsamples = 4\nvalue = [4, 0]"] ;
80 -> 81 ;
82 [label="entropy = 0.0\nsamples = 1\nvalue = [0, 1]"] ;
80 -> 82 ;
83 [label="entropy = 0.0\nsamples = 11\nvalue = [11, 0]"] ;
79 -> 83 ;
84 [label="entropy = 0.0\nsamples = 1\nvalue = [0, 1]"] ;
78 -> 84 ;
85 [label="X[13] <= 14.5\nentropy = 0.133\nsamples = 54\nvalue = [53, 1]"] ;
75 -> 85 ;
86 [label="entropy = 0.0\nsamples = 41\nvalue = [41, 0]"] ;
85 -> 86 ;
87 [label="X[2] <= 0.121\nentropy = 0.391\nsamples = 13\nvalue = [12, 1]"] ;
85 -> 87 ;
88 [label="X[13] <= 21.0\nentropy = 1.0\nsamples = 2\nvalue = [1, 1]"] ;
87 -> 88 ;
89 [label="entropy = 0.0\nsamples = 1\nvalue = [0, 1]"] ;
88 -> 89 ;
90 [label="entropy = 0.0\nsamples = 1\nvalue = [1, 0]"] ;
88 -> 90 ;
91 [label="entropy = 0.0\nsamples = 11\nvalue = [11, 0]"] ;
87 -> 91 ;
92 [label="X[6] <= 1.5\nentropy = 0.592\nsamples = 77\nvalue = [66, 11]"] ;
74 -> 92 ;
93 [label="X[4] <= 2.5\nentropy = 0.474\nsamples = 59\nvalue = [53, 6]"] ;
92 -> 93 ;
94 [label="X[13] <= 16.5\nentropy = 0.863\nsamples = 7\nvalue = [5, 2]"] ;
93 -> 94 ;
95 [label="entropy = 0.0\nsamples = 4\nvalue = [4, 0]"] ;
94 -> 95 ;
96 [label="X[0] <= 0.616\nentropy = 0.918\nsamples = 3\nvalue = [1, 2]"] ;
94 -> 96 ;
97 [label="entropy = 0.0\nsamples = 2\nvalue = [0, 2]"] ;
96 -> 97 ;
98 [label="entropy = 0.0\nsamples = 1\nvalue = [1, 0]"] ;
96 -> 98 ;
99 [label="X[0] <= 0.541\nentropy = 0.391\nsamples = 52\nvalue = [48, 4]"] ;
93 -> 99 ;
100 [label="entropy = 0.0\nsamples = 17\nvalue = [17, 0]"] ;
99 -> 100 ;
101 [label="X[0] <= 0.555\nentropy = 0.513\nsamples = 35\nvalue = [31, 4]"] ;
99 -> 101 ;
102 [label="X[3] <= 2.5\nentropy = 1.0\nsamples = 6\nvalue = [3, 3]"] ;
101 -> 102 ;
103 [label="entropy = 0.0\nsamples = 2\nvalue = [2, 0]"] ;
102 -> 103 ;
104 [label="X[3] <= 3.5\nentropy = 0.811\nsamples = 4\nvalue = [1, 3]"] ;
102 -> 104 ;
105 [label="X[2] <= 0.081\nentropy = 1.0\nsamples = 2\nvalue = [1, 1]"] ;
104 -> 105 ;
106 [label="entropy = 0.0\nsamples = 1\nvalue = [0, 1]"] ;
105 -> 106 ;
107 [label="entropy = 0.0\nsamples = 1\nvalue = [1, 0]"] ;
105 -> 107 ;
108 [label="entropy = 0.0\nsamples = 2\nvalue = [0, 2]"] ;
104 -> 108 ;
109 [label="X[0] <= 0.664\nentropy = 0.216\nsamples = 29\nvalue = [28, 1]"] ;
101 -> 109 ;
110 [label="entropy = 0.0\nsamples = 24\nvalue = [24, 0]"] ;
109 -> 110 ;
111 [label="X[1] <= 1.5\nentropy = 0.722\nsamples = 5\nvalue = [4, 1]"] ;
109 -> 111 ;
112 [label="entropy = 0.0\nsamples = 4\nvalue = [4, 0]"] ;
111 -> 112 ;
113 [label="entropy = 0.0\nsamples = 1\nvalue = [0, 1]"] ;
111 -> 113 ;
114 [label="X[2] <= 0.116\nentropy = 0.852\nsamples = 18\nvalue = [13, 5]"] ;
92 -> 114 ;
115 [label="X[2] <= 0.015\nentropy = 0.439\nsamples = 11\nvalue = [10, 1]"] ;
114 -> 115 ;
116 [label="X[0] <= 0.582\nentropy = 0.811\nsamples = 4\nvalue = [3, 1]"] ;
115 -> 116 ;
117 [label="entropy = 0.0\nsamples = 1\nvalue = [0, 1]"] ;
116 -> 117 ;
118 [label="entropy = 0.0\nsamples = 3\nvalue = [3, 0]"] ;
116 -> 118 ;
119 [label="entropy = 0.0\nsamples = 7\nvalue = [7, 0]"] ;
115 -> 119 ;
120 [label="X[2] <= 0.16\nentropy = 0.985\nsamples = 7\nvalue = [3, 4]"] ;
114 -> 120 ;
121 [label="entropy = 0.0\nsamples = 3\nvalue = [0, 3]"] ;
120 -> 121 ;
122 [label="X[6] <= 2.5\nentropy = 0.811\nsamples = 4\nvalue = [3, 1]"] ;
120 -> 122 ;
123 [label="entropy = 0.0\nsamples = 3\nvalue = [3, 0]"] ;
122 -> 123 ;
124 [label="entropy = 0.0\nsamples = 1\nvalue = [0, 1]"] ;
122 -> 124 ;
125 [label="X[6] <= 2.5\nentropy = 1.0\nsamples = 6\nvalue = [3, 3]"] ;
73 -> 125 ;
126 [label="X[0] <= 0.795\nentropy = 0.811\nsamples = 4\nvalue = [1, 3]"] ;
125 -> 126 ;
127 [label="entropy = 0.0\nsamples = 3\nvalue = [0, 3]"] ;
126 -> 127 ;
128 [label="entropy = 0.0\nsamples = 1\nvalue = [1, 0]"] ;
126 -> 128 ;
129 [label="entropy = 0.0\nsamples = 2\nvalue = [2, 0]"] ;
125 -> 129 ;
130 [label="X[7] <= 1.0\nentropy = 0.283\nsamples = 365\nvalue = [347, 18]"] ;
72 -> 130 ;
131 [label="X[2] <= 0.115\nentropy = 0.625\nsamples = 32\nvalue = [27, 5]"] ;
130 -> 131 ;
132 [label="X[2] <= 0.108\nentropy = 0.918\nsamples = 15\nvalue = [10, 5]"] ;
131 -> 132 ;
133 [label="X[0] <= 0.404\nentropy = 0.65\nsamples = 12\nvalue = [10, 2]"] ;
132 -> 133 ;
134 [label="X[3] <= 1.5\nentropy = 0.971\nsamples = 5\nvalue = [3, 2]"] ;
133 -> 134 ;
135 [label="entropy = 0.0\nsamples = 2\nvalue = [2, 0]"] ;
134 -> 135 ;
136 [label="X[0] <= 0.322\nentropy = 0.918\nsamples = 3\nvalue = [1, 2]"] ;
134 -> 136 ;
137 [label="entropy = 0.0\nsamples = 1\nvalue = [1, 0]"] ;
136 -> 137 ;
138 [label="entropy = 0.0\nsamples = 2\nvalue = [0, 2]"] ;
136 -> 138 ;
139 [label="entropy = 0.0\nsamples = 7\nvalue = [7, 0]"] ;
133 -> 139 ;
140 [label="entropy = 0.0\nsamples = 3\nvalue = [0, 3]"] ;
132 -> 140 ;
141 [label="entropy = 0.0\nsamples = 17\nvalue = [17, 0]"] ;
131 -> 141 ;
142 [label="X[8] <= 0.5\nentropy = 0.238\nsamples = 333\nvalue = [320, 13]"] ;
130 -> 142 ;
143 [label="X[6] <= 5.5\nentropy = 0.278\nsamples = 270\nvalue = [257, 13]"] ;
142 -> 143 ;
144 [label="entropy = 0.0\nsamples = 44\nvalue = [44, 0]"] ;
143 -> 144 ;
145 [label="X[1] <= 3.5\nentropy = 0.318\nsamples = 226\nvalue = [213, 13]"] ;
143 -> 145 ;
146 [label="X[1] <= 1.5\nentropy = 0.351\nsamples = 197\nvalue = [184, 13]"] ;
145 -> 146 ;
147 [label="X[0] <= 0.678\nentropy = 0.314\nsamples = 194\nvalue = [183, 11]"] ;
146 -> 147 ;
148 [label="X[0] <= 0.664\nentropy = 0.343\nsamples = 172\nvalue = [161, 11]"] ;
147 -> 148 ;
149 [label="X[12] <= 0.388\nentropy = 0.321\nsamples = 171\nvalue = [161, 10]"] ;
148 -> 149 ;
150 [label="entropy = 0.0\nsamples = 25\nvalue = [25, 0]"] ;
149 -> 150 ;
151 [label="X[1] <= 0.5\nentropy = 0.36\nsamples = 146\nvalue = [136, 10]"] ;
149 -> 151 ;
152 [label="X[2] <= 0.255\nentropy = 0.299\nsamples = 132\nvalue = [125, 7]"] ;
151 -> 152 ;
153 [label="X[0] <= 0.541\nentropy = 0.245\nsamples = 123\nvalue = [118, 5]"] ;
152 -> 153 ;
154 [label="X[2] <= 0.034\nentropy = 0.312\nsamples = 89\nvalue = [84, 5]"] ;
153 -> 154 ;
155 [label="X[4] <= 4.0\nentropy = 1.0\nsamples = 2\nvalue = [1, 1]"] ;
154 -> 155 ;
156 [label="entropy = 0.0\nsamples = 1\nvalue = [0, 1]"] ;
155 -> 156 ;
157 [label="entropy = 0.0\nsamples = 1\nvalue = [1, 0]"] ;
155 -> 157 ;
158 [label="X[11] <= 0.212\nentropy = 0.269\nsamples = 87\nvalue = [83, 4]"] ;
154 -> 158 ;
159 [label="X[13] <= 19.5\nentropy = 0.222\nsamples = 84\nvalue = [81, 3]"] ;
158 -> 159 ;
160 [label="entropy = 0.0\nsamples = 49\nvalue = [49, 0]"] ;
159 -> 160 ;
161 [label="X[6] <= 6.5\nentropy = 0.422\nsamples = 35\nvalue = [32, 3]"] ;
159 -> 161 ;
162 [label="X[0] <= 0.349\nentropy = 0.575\nsamples = 22\nvalue = [19, 3]"] ;
161 -> 162 ;
163 [label="X[2] <= 0.173\nentropy = 0.863\nsamples = 7\nvalue = [5, 2]"] ;
162 -> 163 ;
164 [label="X[3] <= 1.5\nentropy = 0.65\nsamples = 6\nvalue = [5, 1]"] ;
163 -> 164 ;
165 [label="X[2] <= 0.148\nentropy = 0.918\nsamples = 3\nvalue = [2, 1]"] ;
164 -> 165 ;
166 [label="entropy = 0.0\nsamples = 2\nvalue = [2, 0]"] ;
165 -> 166 ;
167 [label="entropy = 0.0\nsamples = 1\nvalue = [0, 1]"] ;
165 -> 167 ;
168 [label="entropy = 0.0\nsamples = 3\nvalue = [3, 0]"] ;
164 -> 168 ;
169 [label="entropy = 0.0\nsamples = 1\nvalue = [0, 1]"] ;
163 -> 169 ;
170 [label="X[0] <= 0.527\nentropy = 0.353\nsamples = 15\nvalue = [14, 1]"] ;
162 -> 170 ;
171 [label="entropy = 0.0\nsamples = 13\nvalue = [13, 0]"] ;
170 -> 171 ;
172 [label="X[2] <= 0.061\nentropy = 1.0\nsamples = 2\nvalue = [1, 1]"] ;
170 -> 172 ;
173 [label="entropy = 0.0\nsamples = 1\nvalue = [1, 0]"] ;
172 -> 173 ;
174 [label="entropy = 0.0\nsamples = 1\nvalue = [0, 1]"] ;
172 -> 174 ;
175 [label="entropy = 0.0\nsamples = 13\nvalue = [13, 0]"] ;
161 -> 175 ;
176 [label="X[2] <= 0.108\nentropy = 0.918\nsamples = 3\nvalue = [2, 1]"] ;
158 -> 176 ;
177 [label="entropy = 0.0\nsamples = 2\nvalue = [2, 0]"] ;
176 -> 177 ;
178 [label="entropy = 0.0\nsamples = 1\nvalue = [0, 1]"] ;
176 -> 178 ;
179 [label="entropy = 0.0\nsamples = 34\nvalue = [34, 0]"] ;
153 -> 179 ;
180 [label="X[13] <= 11.0\nentropy = 0.764\nsamples = 9\nvalue = [7, 2]"] ;
152 -> 180 ;
181 [label="entropy = 0.0\nsamples = 2\nvalue = [0, 2]"] ;
180 -> 181 ;
182 [label="entropy = 0.0\nsamples = 7\nvalue = [7, 0]"] ;
180 -> 182 ;
183 [label="X[2] <= 0.1\nentropy = 0.75\nsamples = 14\nvalue = [11, 3]"] ;
151 -> 183 ;
184 [label="X[6] <= 8.5\nentropy = 0.971\nsamples = 5\nvalue = [2, 3]"] ;
183 -> 184 ;
185 [label="entropy = 0.0\nsamples = 2\nvalue = [2, 0]"] ;
184 -> 185 ;
186 [label="entropy = 0.0\nsamples = 3\nvalue = [0, 3]"] ;
184 -> 186 ;
187 [label="entropy = 0.0\nsamples = 9\nvalue = [9, 0]"] ;
183 -> 187 ;
188 [label="entropy = 0.0\nsamples = 1\nvalue = [0, 1]"] ;
148 -> 188 ;
189 [label="entropy = 0.0\nsamples = 22\nvalue = [22, 0]"] ;
147 -> 189 ;
190 [label="X[13] <= 9.0\nentropy = 0.918\nsamples = 3\nvalue = [1, 2]"] ;
146 -> 190 ;
191 [label="entropy = 0.0\nsamples = 2\nvalue = [0, 2]"] ;
190 -> 191 ;
192 [label="entropy = 0.0\nsamples = 1\nvalue = [1, 0]"] ;
190 -> 192 ;
193 [label="entropy = 0.0\nsamples = 29\nvalue = [29, 0]"] ;
145 -> 193 ;
194 [label="entropy = 0.0\nsamples = 63\nvalue = [63, 0]"] ;
142 -> 194 ;
195 [label="X[11] <= 0.412\nentropy = 0.638\nsamples = 464\nvalue = [389, 75]"] ;
69 -> 195 ;
196 [label="X[0] <= 0.692\nentropy = 0.611\nsamples = 452\nvalue = [384, 68]"] ;
195 -> 196 ;
197 [label="X[13] <= 14.5\nentropy = 0.638\nsamples = 421\nvalue = [353, 68]"] ;
196 -> 197 ;
198 [label="X[10] <= 0.03\nentropy = 0.658\nsamples = 400\nvalue = [332, 68]"] ;
197 -> 198 ;
199 [label="X[6] <= 4.5\nentropy = 0.633\nsamples = 389\nvalue = [327, 62]"] ;
198 -> 199 ;
200 [label="X[6] <= 3.5\nentropy = 0.732\nsamples = 156\nvalue = [124, 32]"] ;
199 -> 200 ;
201 [label="X[12] <= 0.276\nentropy = 0.703\nsamples = 152\nvalue = [123, 29]"] ;
200 -> 201 ;
202 [label="entropy = 0.0\nsamples = 13\nvalue = [13, 0]"] ;
201 -> 202 ;
203 [label="X[8] <= 1.5\nentropy = 0.739\nsamples = 139\nvalue = [110, 29]"] ;
201 -> 203 ;
204 [label="X[2] <= 0.121\nentropy = 0.71\nsamples = 134\nvalue = [108, 26]"] ;
203 -> 204 ;
205 [label="X[0] <= 0.363\nentropy = 0.6\nsamples = 89\nvalue = [76, 13]"] ;
204 -> 205 ;
206 [label="entropy = 0.0\nsamples = 15\nvalue = [15, 0]"] ;
205 -> 206 ;
207 [label="X[2] <= 0.11\nentropy = 0.671\nsamples = 74\nvalue = [61, 13]"] ;
205 -> 207 ;
208 [label="X[0] <= 0.623\nentropy = 0.734\nsamples = 63\nvalue = [50, 13]"] ;
207 -> 208 ;
209 [label="X[2] <= 0.11\nentropy = 0.782\nsamples = 56\nvalue = [43, 13]"] ;
208 -> 209 ;
210 [label="X[0] <= 0.432\nentropy = 0.757\nsamples = 55\nvalue = [43, 12]"] ;
209 -> 210 ;
211 [label="entropy = 0.0\nsamples = 9\nvalue = [9, 0]"] ;
210 -> 211 ;
212 [label="X[0] <= 0.473\nentropy = 0.828\nsamples = 46\nvalue = [34, 12]"] ;
210 -> 212 ;
213 [label="X[2] <= 0.026\nentropy = 1.0\nsamples = 8\nvalue = [4, 4]"] ;
212 -> 213 ;
214 [label="entropy = 0.0\nsamples = 2\nvalue = [0, 2]"] ;
213 -> 214 ;
215 [label="X[2] <= 0.088\nentropy = 0.918\nsamples = 6\nvalue = [4, 2]"] ;
213 -> 215 ;
216 [label="X[0] <= 0.459\nentropy = 0.722\nsamples = 5\nvalue = [4, 1]"] ;
215 -> 216 ;
217 [label="entropy = 0.0\nsamples = 4\nvalue = [4, 0]"] ;
216 -> 217 ;
218 [label="entropy = 0.0\nsamples = 1\nvalue = [0, 1]"] ;
216 -> 218 ;
219 [label="entropy = 0.0\nsamples = 1\nvalue = [0, 1]"] ;
215 -> 219 ;
220 [label="X[0] <= 0.568\nentropy = 0.742\nsamples = 38\nvalue = [30, 8]"] ;
212 -> 220 ;
221 [label="X[2] <= 0.071\nentropy = 0.516\nsamples = 26\nvalue = [23, 3]"] ;
220 -> 221 ;
222 [label="entropy = 0.0\nsamples = 9\nvalue = [9, 0]"] ;
221 -> 222 ;
223 [label="X[2] <= 0.074\nentropy = 0.672\nsamples = 17\nvalue = [14, 3]"] ;
221 -> 223 ;
224 [label="entropy = 0.0\nsamples = 1\nvalue = [0, 1]"] ;
223 -> 224 ;
225 [label="X[1] <= 0.5\nentropy = 0.544\nsamples = 16\nvalue = [14, 2]"] ;
223 -> 225 ;
226 [label="X[2] <= 0.086\nentropy = 0.722\nsamples = 10\nvalue = [8, 2]"] ;
225 -> 226 ;
227 [label="entropy = 0.0\nsamples = 1\nvalue = [0, 1]"] ;
226 -> 227 ;
228 [label="X[3] <= 5.5\nentropy = 0.503\nsamples = 9\nvalue = [8, 1]"] ;
226 -> 228 ;
229 [label="X[0] <= 0.527\nentropy = 0.918\nsamples = 3\nvalue = [2, 1]"] ;
228 -> 229 ;
230 [label="entropy = 0.0\nsamples = 2\nvalue = [2, 0]"] ;
229 -> 230 ;
231 [label="entropy = 0.0\nsamples = 1\nvalue = [0, 1]"] ;
229 -> 231 ;
232 [label="entropy = 0.0\nsamples = 6\nvalue = [6, 0]"] ;
228 -> 232 ;
233 [label="entropy = 0.0\nsamples = 6\nvalue = [6, 0]"] ;
225 -> 233 ;
234 [label="X[3] <= 5.5\nentropy = 0.98\nsamples = 12\nvalue = [7, 5]"] ;
220 -> 234 ;
235 [label="X[0] <= 0.582\nentropy = 0.811\nsamples = 8\nvalue = [6, 2]"] ;
234 -> 235 ;
236 [label="X[12] <= 0.378\nentropy = 0.918\nsamples = 3\nvalue = [1, 2]"] ;
235 -> 236 ;
237 [label="entropy = 0.0\nsamples = 1\nvalue = [1, 0]"] ;
236 -> 237 ;
238 [label="entropy = 0.0\nsamples = 2\nvalue = [0, 2]"] ;
236 -> 238 ;
239 [label="entropy = 0.0\nsamples = 5\nvalue = [5, 0]"] ;
235 -> 239 ;
240 [label="X[2] <= 0.082\nentropy = 0.811\nsamples = 4\nvalue = [1, 3]"] ;
234 -> 240 ;
241 [label="entropy = 0.0\nsamples = 3\nvalue = [0, 3]"] ;
240 -> 241 ;
242 [label="entropy = 0.0\nsamples = 1\nvalue = [1, 0]"] ;
240 -> 242 ;
243 [label="entropy = 0.0\nsamples = 1\nvalue = [0, 1]"] ;
209 -> 243 ;
244 [label="entropy = 0.0\nsamples = 7\nvalue = [7, 0]"] ;
208 -> 244 ;
245 [label="entropy = 0.0\nsamples = 11\nvalue = [11, 0]"] ;
207 -> 245 ;
246 [label="X[0] <= 0.616\nentropy = 0.867\nsamples = 45\nvalue = [32, 13]"] ;
204 -> 246 ;
247 [label="X[2] <= 0.17\nentropy = 0.792\nsamples = 42\nvalue = [32, 10]"] ;
246 -> 247 ;
248 [label="X[2] <= 0.165\nentropy = 0.951\nsamples = 27\nvalue = [17, 10]"] ;
247 -> 248 ;
249 [label="X[2] <= 0.134\nentropy = 0.904\nsamples = 25\nvalue = [17, 8]"] ;
248 -> 249 ;
250 [label="X[1] <= 0.5\nentropy = 1.0\nsamples = 12\nvalue = [6, 6]"] ;
249 -> 250 ;
251 [label="X[2] <= 0.125\nentropy = 0.811\nsamples = 8\nvalue = [2, 6]"] ;
250 -> 251 ;
252 [label="X[2] <= 0.121\nentropy = 0.918\nsamples = 3\nvalue = [2, 1]"] ;
251 -> 252 ;
253 [label="entropy = 0.0\nsamples = 1\nvalue = [0, 1]"] ;
252 -> 253 ;
254 [label="entropy = 0.0\nsamples = 2\nvalue = [2, 0]"] ;
252 -> 254 ;
255 [label="entropy = 0.0\nsamples = 5\nvalue = [0, 5]"] ;
251 -> 255 ;
256 [label="entropy = 0.0\nsamples = 4\nvalue = [4, 0]"] ;
250 -> 256 ;
257 [label="X[7] <= 1.0\nentropy = 0.619\nsamples = 13\nvalue = [11, 2]"] ;
249 -> 257 ;
258 [label="entropy = 0.0\nsamples = 1\nvalue = [0, 1]"] ;
257 -> 258 ;
259 [label="X[3] <= 6.5\nentropy = 0.414\nsamples = 12\nvalue = [11, 1]"] ;
257 -> 259 ;
260 [label="entropy = 0.0\nsamples = 9\nvalue = [9, 0]"] ;
259 -> 260 ;
261 [label="X[2] <= 0.146\nentropy = 0.918\nsamples = 3\nvalue = [2, 1]"] ;
259 -> 261 ;
262 [label="entropy = 0.0\nsamples = 2\nvalue = [2, 0]"] ;
261 -> 262 ;
263 [label="entropy = 0.0\nsamples = 1\nvalue = [0, 1]"] ;
261 -> 263 ;
264 [label="entropy = 0.0\nsamples = 2\nvalue = [0, 2]"] ;
248 -> 264 ;
265 [label="entropy = 0.0\nsamples = 15\nvalue = [15, 0]"] ;
247 -> 265 ;
266 [label="entropy = 0.0\nsamples = 3\nvalue = [0, 3]"] ;
246 -> 266 ;
267 [label="X[6] <= 1.5\nentropy = 0.971\nsamples = 5\nvalue = [2, 3]"] ;
203 -> 267 ;
268 [label="X[7] <= 1.5\nentropy = 0.918\nsamples = 3\nvalue = [2, 1]"] ;
267 -> 268 ;
269 [label="entropy = 0.0\nsamples = 1\nvalue = [0, 1]"] ;
268 -> 269 ;
270 [label="entropy = 0.0\nsamples = 2\nvalue = [2, 0]"] ;
268 -> 270 ;
271 [label="entropy = 0.0\nsamples = 2\nvalue = [0, 2]"] ;
267 -> 271 ;
272 [label="X[3] <= 6.0\nentropy = 0.811\nsamples = 4\nvalue = [1, 3]"] ;
200 -> 272 ;
273 [label="X[1] <= 0.5\nentropy = 1.0\nsamples = 2\nvalue = [1, 1]"] ;
272 -> 273 ;
274 [label="entropy = 0.0\nsamples = 1\nvalue = [1, 0]"] ;
273 -> 274 ;
275 [label="entropy = 0.0\nsamples = 1\nvalue = [0, 1]"] ;
273 -> 275 ;
276 [label="entropy = 0.0\nsamples = 2\nvalue = [0, 2]"] ;
272 -> 276 ;
277 [label="X[3] <= 5.5\nentropy = 0.554\nsamples = 233\nvalue = [203, 30]"] ;
199 -> 277 ;
278 [label="X[11] <= 0.17\nentropy = 0.68\nsamples = 100\nvalue = [82, 18]"] ;
277 -> 278 ;
279 [label="X[12] <= 0.413\nentropy = 0.642\nsamples = 98\nvalue = [82, 16]"] ;
278 -> 279 ;
280 [label="X[0] <= 0.295\nentropy = 0.621\nsamples = 97\nvalue = [82, 15]"] ;
279 -> 280 ;
281 [label="entropy = 0.0\nsamples = 1\nvalue = [0, 1]"] ;
280 -> 281 ;
282 [label="X[13] <= 11.5\nentropy = 0.599\nsamples = 96\nvalue = [82, 14]"] ;
280 -> 282 ;
283 [label="X[12] <= 0.306\nentropy = 0.576\nsamples = 95\nvalue = [82, 13]"] ;
282 -> 283 ;
284 [label="X[12] <= 0.204\nentropy = 0.918\nsamples = 9\nvalue = [6, 3]"] ;
283 -> 284 ;
285 [label="entropy = 0.0\nsamples = 4\nvalue = [4, 0]"] ;
284 -> 285 ;
286 [label="X[0] <= 0.438\nentropy = 0.971\nsamples = 5\nvalue = [2, 3]"] ;
284 -> 286 ;
287 [label="entropy = 0.0\nsamples = 2\nvalue = [2, 0]"] ;
286 -> 287 ;
288 [label="entropy = 0.0\nsamples = 3\nvalue = [0, 3]"] ;
286 -> 288 ;
289 [label="X[0] <= 0.432\nentropy = 0.519\nsamples = 86\nvalue = [76, 10]"] ;
283 -> 289 ;
290 [label="X[2] <= 0.067\nentropy = 0.746\nsamples = 33\nvalue = [26, 7]"] ;
289 -> 290 ;
291 [label="X[2] <= 0.03\nentropy = 0.918\nsamples = 3\nvalue = [1, 2]"] ;
290 -> 291 ;
292 [label="entropy = 0.0\nsamples = 1\nvalue = [1, 0]"] ;
291 -> 292 ;
293 [label="entropy = 0.0\nsamples = 2\nvalue = [0, 2]"] ;
291 -> 293 ;
294 [label="X[2] <= 0.105\nentropy = 0.65\nsamples = 30\nvalue = [25, 5]"] ;
290 -> 294 ;
295 [label="entropy = 0.0\nsamples = 10\nvalue = [10, 0]"] ;
294 -> 295 ;
296 [label="X[2] <= 0.128\nentropy = 0.811\nsamples = 20\nvalue = [15, 5]"] ;
294 -> 296 ;
297 [label="X[0] <= 0.363\nentropy = 0.991\nsamples = 9\nvalue = [5, 4]"] ;
296 -> 297 ;
298 [label="X[8] <= 0.5\nentropy = 0.722\nsamples = 5\nvalue = [4, 1]"] ;
297 -> 298 ;
299 [label="entropy = 0.0\nsamples = 4\nvalue = [4, 0]"] ;
298 -> 299 ;
300 [label="entropy = 0.0\nsamples = 1\nvalue = [0, 1]"] ;
298 -> 300 ;
301 [label="X[0] <= 0.418\nentropy = 0.811\nsamples = 4\nvalue = [1, 3]"] ;
297 -> 301 ;
302 [label="entropy = 0.0\nsamples = 3\nvalue = [0, 3]"] ;
301 -> 302 ;
303 [label="entropy = 0.0\nsamples = 1\nvalue = [1, 0]"] ;
301 -> 303 ;
304 [label="X[2] <= 0.214\nentropy = 0.439\nsamples = 11\nvalue = [10, 1]"] ;
296 -> 304 ;
305 [label="entropy = 0.0\nsamples = 8\nvalue = [8, 0]"] ;
304 -> 305 ;
306 [label="X[2] <= 0.281\nentropy = 0.918\nsamples = 3\nvalue = [2, 1]"] ;
304 -> 306 ;
307 [label="entropy = 0.0\nsamples = 1\nvalue = [0, 1]"] ;
306 -> 307 ;
308 [label="entropy = 0.0\nsamples = 2\nvalue = [2, 0]"] ;
306 -> 308 ;
309 [label="X[6] <= 8.5\nentropy = 0.314\nsamples = 53\nvalue = [50, 3]"] ;
289 -> 309 ;
310 [label="entropy = 0.0\nsamples = 26\nvalue = [26, 0]"] ;
309 -> 310 ;
311 [label="X[6] <= 10.0\nentropy = 0.503\nsamples = 27\nvalue = [24, 3]"] ;
309 -> 311 ;
312 [label="X[1] <= 4.5\nentropy = 0.722\nsamples = 15\nvalue = [12, 3]"] ;
311 -> 312 ;
313 [label="X[0] <= 0.637\nentropy = 0.592\nsamples = 14\nvalue = [12, 2]"] ;
312 -> 313 ;
314 [label="X[8] <= 0.5\nentropy = 0.391\nsamples = 13\nvalue = [12, 1]"] ;
313 -> 314 ;
315 [label="entropy = 0.0\nsamples = 10\nvalue = [10, 0]"] ;
314 -> 315 ;
316 [label="X[2] <= 0.169\nentropy = 0.918\nsamples = 3\nvalue = [2, 1]"] ;
314 -> 316 ;
317 [label="entropy = 0.0\nsamples = 1\nvalue = [0, 1]"] ;
316 -> 317 ;
318 [label="entropy = 0.0\nsamples = 2\nvalue = [2, 0]"] ;
316 -> 318 ;
319 [label="entropy = 0.0\nsamples = 1\nvalue = [0, 1]"] ;
313 -> 319 ;
320 [label="entropy = 0.0\nsamples = 1\nvalue = [0, 1]"] ;
312 -> 320 ;
321 [label="entropy = 0.0\nsamples = 12\nvalue = [12, 0]"] ;
311 -> 321 ;
322 [label="entropy = 0.0\nsamples = 1\nvalue = [0, 1]"] ;
282 -> 322 ;
323 [label="entropy = 0.0\nsamples = 1\nvalue = [0, 1]"] ;
279 -> 323 ;
324 [label="entropy = 0.0\nsamples = 2\nvalue = [0, 2]"] ;
278 -> 324 ;
325 [label="X[8] <= 0.5\nentropy = 0.437\nsamples = 133\nvalue = [121, 12]"] ;
277 -> 325 ;
326 [label="X[12] <= 0.332\nentropy = 0.339\nsamples = 111\nvalue = [104, 7]"] ;
325 -> 326 ;
327 [label="entropy = 0.0\nsamples = 21\nvalue = [21, 0]"] ;
326 -> 327 ;
328 [label="X[2] <= 0.24\nentropy = 0.394\nsamples = 90\nvalue = [83, 7]"] ;
326 -> 328 ;
329 [label="X[1] <= 2.5\nentropy = 0.359\nsamples = 88\nvalue = [82, 6]"] ;
328 -> 329 ;
330 [label="X[1] <= 1.5\nentropy = 0.391\nsamples = 78\nvalue = [72, 6]"] ;
329 -> 330 ;
331 [label="X[2] <= 0.123\nentropy = 0.347\nsamples = 77\nvalue = [72, 5]"] ;
330 -> 331 ;
332 [label="X[2] <= 0.094\nentropy = 0.229\nsamples = 54\nvalue = [52, 2]"] ;
331 -> 332 ;
333 [label="X[2] <= 0.09\nentropy = 0.353\nsamples = 30\nvalue = [28, 2]"] ;
332 -> 333 ;
334 [label="X[0] <= 0.589\nentropy = 0.216\nsamples = 29\nvalue = [28, 1]"] ;
333 -> 334 ;
335 [label="entropy = 0.0\nsamples = 25\nvalue = [25, 0]"] ;
334 -> 335 ;
336 [label="X[2] <= 0.047\nentropy = 0.811\nsamples = 4\nvalue = [3, 1]"] ;
334 -> 336 ;
337 [label="entropy = 0.0\nsamples = 1\nvalue = [0, 1]"] ;
336 -> 337 ;
338 [label="entropy = 0.0\nsamples = 3\nvalue = [3, 0]"] ;
336 -> 338 ;
339 [label="entropy = 0.0\nsamples = 1\nvalue = [0, 1]"] ;
333 -> 339 ;
340 [label="entropy = 0.0\nsamples = 24\nvalue = [24, 0]"] ;
332 -> 340 ;
341 [label="X[2] <= 0.123\nentropy = 0.559\nsamples = 23\nvalue = [20, 3]"] ;
331 -> 341 ;
342 [label="entropy = 0.0\nsamples = 1\nvalue = [0, 1]"] ;
341 -> 342 ;
343 [label="X[2] <= 0.141\nentropy = 0.439\nsamples = 22\nvalue = [20, 2]"] ;
341 -> 343 ;
344 [label="entropy = 0.0\nsamples = 10\nvalue = [10, 0]"] ;
343 -> 344 ;
345 [label="X[2] <= 0.144\nentropy = 0.65\nsamples = 12\nvalue = [10, 2]"] ;
343 -> 345 ;
346 [label="entropy = 0.0\nsamples = 1\nvalue = [0, 1]"] ;
345 -> 346 ;
347 [label="X[6] <= 7.5\nentropy = 0.439\nsamples = 11\nvalue = [10, 1]"] ;
345 -> 347 ;
348 [label="X[6] <= 6.5\nentropy = 1.0\nsamples = 2\nvalue = [1, 1]"] ;
347 -> 348 ;
349 [label="entropy = 0.0\nsamples = 1\nvalue = [1, 0]"] ;
348 -> 349 ;
350 [label="entropy = 0.0\nsamples = 1\nvalue = [0, 1]"] ;
348 -> 350 ;
351 [label="entropy = 0.0\nsamples = 9\nvalue = [9, 0]"] ;
347 -> 351 ;
352 [label="entropy = 0.0\nsamples = 1\nvalue = [0, 1]"] ;
330 -> 352 ;
353 [label="entropy = 0.0\nsamples = 10\nvalue = [10, 0]"] ;
329 -> 353 ;
354 [label="X[2] <= 0.249\nentropy = 1.0\nsamples = 2\nvalue = [1, 1]"] ;
328 -> 354 ;
355 [label="entropy = 0.0\nsamples = 1\nvalue = [0, 1]"] ;
354 -> 355 ;
356 [label="entropy = 0.0\nsamples = 1\nvalue = [1, 0]"] ;
354 -> 356 ;
357 [label="X[12] <= 0.352\nentropy = 0.773\nsamples = 22\nvalue = [17, 5]"] ;
325 -> 357 ;
358 [label="entropy = 0.0\nsamples = 2\nvalue = [0, 2]"] ;
357 -> 358 ;
359 [label="X[4] <= 7.5\nentropy = 0.61\nsamples = 20\nvalue = [17, 3]"] ;
357 -> 359 ;
360 [label="X[9] <= 0.5\nentropy = 0.353\nsamples = 15\nvalue = [14, 1]"] ;
359 -> 360 ;
361 [label="X[0] <= 0.459\nentropy = 1.0\nsamples = 2\nvalue = [1, 1]"] ;
360 -> 361 ;
362 [label="entropy = 0.0\nsamples = 1\nvalue = [1, 0]"] ;
361 -> 362 ;
363 [label="entropy = 0.0\nsamples = 1\nvalue = [0, 1]"] ;
361 -> 363 ;
364 [label="entropy = 0.0\nsamples = 13\nvalue = [13, 0]"] ;
360 -> 364 ;
365 [label="X[6] <= 6.5\nentropy = 0.971\nsamples = 5\nvalue = [3, 2]"] ;
359 -> 365 ;
366 [label="entropy = 0.0\nsamples = 2\nvalue = [0, 2]"] ;
365 -> 366 ;
367 [label="entropy = 0.0\nsamples = 3\nvalue = [3, 0]"] ;
365 -> 367 ;
368 [label="X[0] <= 0.473\nentropy = 0.994\nsamples = 11\nvalue = [5, 6]"] ;
198 -> 368 ;
369 [label="X[6] <= 11.0\nentropy = 0.65\nsamples = 6\nvalue = [1, 5]"] ;
368 -> 369 ;
370 [label="entropy = 0.0\nsamples = 5\nvalue = [0, 5]"] ;
369 -> 370 ;
371 [label="entropy = 0.0\nsamples = 1\nvalue = [1, 0]"] ;
369 -> 371 ;
372 [label="X[4] <= 6.5\nentropy = 0.722\nsamples = 5\nvalue = [4, 1]"] ;
368 -> 372 ;
373 [label="entropy = 0.0\nsamples = 3\nvalue = [3, 0]"] ;
372 -> 373 ;
374 [label="X[10] <= 0.041\nentropy = 1.0\nsamples = 2\nvalue = [1, 1]"] ;
372 -> 374 ;
375 [label="entropy = 0.0\nsamples = 1\nvalue = [1, 0]"] ;
374 -> 375 ;
376 [label="entropy = 0.0\nsamples = 1\nvalue = [0, 1]"] ;
374 -> 376 ;
377 [label="entropy = 0.0\nsamples = 21\nvalue = [21, 0]"] ;
197 -> 377 ;
378 [label="entropy = 0.0\nsamples = 31\nvalue = [31, 0]"] ;
196 -> 378 ;
379 [label="X[11] <= 0.457\nentropy = 0.98\nsamples = 12\nvalue = [5, 7]"] ;
195 -> 379 ;
380 [label="entropy = 0.0\nsamples = 7\nvalue = [0, 7]"] ;
379 -> 380 ;
381 [label="entropy = 0.0\nsamples = 5\nvalue = [5, 0]"] ;
379 -> 381 ;
382 [label="X[6] <= 12.0\nentropy = 0.688\nsamples = 528\nvalue = [431, 97]"] ;
4 -> 382 ;
383 [label="X[0] <= 0.363\nentropy = 0.711\nsamples = 499\nvalue = [402, 97]"] ;
382 -> 383 ;
384 [label="X[12] <= 0.597\nentropy = 0.576\nsamples = 234\nvalue = [202, 32]"] ;
383 -> 384 ;
385 [label="X[0] <= 0.144\nentropy = 0.65\nsamples = 156\nvalue = [130, 26]"] ;
384 -> 385 ;
386 [label="X[12] <= 0.49\nentropy = 0.337\nsamples = 32\nvalue = [30, 2]"] ;
385 -> 386 ;
387 [label="entropy = 0.0\nsamples = 16\nvalue = [16, 0]"] ;
386 -> 387 ;
388 [label="X[2] <= 0.149\nentropy = 0.544\nsamples = 16\nvalue = [14, 2]"] ;
386 -> 388 ;
389 [label="entropy = 0.0\nsamples = 6\nvalue = [6, 0]"] ;
388 -> 389 ;
390 [label="X[2] <= 0.15\nentropy = 0.722\nsamples = 10\nvalue = [8, 2]"] ;
388 -> 390 ;
391 [label="entropy = 0.0\nsamples = 1\nvalue = [0, 1]"] ;
390 -> 391 ;
392 [label="X[3] <= 4.0\nentropy = 0.503\nsamples = 9\nvalue = [8, 1]"] ;
390 -> 392 ;
393 [label="X[2] <= 0.204\nentropy = 0.918\nsamples = 3\nvalue = [2, 1]"] ;
392 -> 393 ;
394 [label="entropy = 0.0\nsamples = 2\nvalue = [2, 0]"] ;
393 -> 394 ;
395 [label="entropy = 0.0\nsamples = 1\nvalue = [0, 1]"] ;
393 -> 395 ;
396 [label="entropy = 0.0\nsamples = 6\nvalue = [6, 0]"] ;
392 -> 396 ;
397 [label="X[10] <= 0.042\nentropy = 0.709\nsamples = 124\nvalue = [100, 24]"] ;
385 -> 397 ;
398 [label="X[1] <= 0.5\nentropy = 0.695\nsamples = 123\nvalue = [100, 23]"] ;
397 -> 398 ;
399 [label="X[12] <= 0.577\nentropy = 0.623\nsamples = 103\nvalue = [87, 16]"] ;
398 -> 399 ;
400 [label="X[2] <= 0.041\nentropy = 0.602\nsamples = 102\nvalue = [87, 15]"] ;
399 -> 400 ;
401 [label="entropy = 0.0\nsamples = 8\nvalue = [8, 0]"] ;
400 -> 401 ;
402 [label="X[2] <= 0.043\nentropy = 0.633\nsamples = 94\nvalue = [79, 15]"] ;
400 -> 402 ;
403 [label="entropy = 0.0\nsamples = 1\nvalue = [0, 1]"] ;
402 -> 403 ;
404 [label="X[7] <= 1.5\nentropy = 0.611\nsamples = 93\nvalue = [79, 14]"] ;
402 -> 404 ;
405 [label="X[12] <= 0.49\nentropy = 1.0\nsamples = 4\nvalue = [2, 2]"] ;
404 -> 405 ;
406 [label="entropy = 0.0\nsamples = 2\nvalue = [2, 0]"] ;
405 -> 406 ;
407 [label="entropy = 0.0\nsamples = 2\nvalue = [0, 2]"] ;
405 -> 407 ;
408 [label="X[8] <= 3.5\nentropy = 0.571\nsamples = 89\nvalue = [77, 12]"] ;
404 -> 408 ;
409 [label="X[3] <= 3.5\nentropy = 0.544\nsamples = 88\nvalue = [77, 11]"] ;
408 -> 409 ;
410 [label="entropy = 0.0\nsamples = 21\nvalue = [21, 0]"] ;
409 -> 410 ;
411 [label="X[4] <= 7.5\nentropy = 0.644\nsamples = 67\nvalue = [56, 11]"] ;
409 -> 411 ;
412 [label="X[13] <= 11.0\nentropy = 0.687\nsamples = 60\nvalue = [49, 11]"] ;
411 -> 412 ;
413 [label="X[2] <= 0.258\nentropy = 0.722\nsamples = 55\nvalue = [44, 11]"] ;
412 -> 413 ;
414 [label="X[2] <= 0.108\nentropy = 0.665\nsamples = 52\nvalue = [43, 9]"] ;
413 -> 414 ;
415 [label="X[2] <= 0.102\nentropy = 0.845\nsamples = 22\nvalue = [16, 6]"] ;
414 -> 415 ;
416 [label="X[6] <= 8.5\nentropy = 0.722\nsamples = 20\nvalue = [16, 4]"] ;
415 -> 416 ;
417 [label="X[2] <= 0.092\nentropy = 0.837\nsamples = 15\nvalue = [11, 4]"] ;
416 -> 417 ;
418 [label="X[2] <= 0.088\nentropy = 0.946\nsamples = 11\nvalue = [7, 4]"] ;
417 -> 418 ;
419 [label="X[6] <= 2.5\nentropy = 0.764\nsamples = 9\nvalue = [7, 2]"] ;
418 -> 419 ;
420 [label="entropy = 0.0\nsamples = 5\nvalue = [5, 0]"] ;
419 -> 420 ;
421 [label="X[12] <= 0.474\nentropy = 1.0\nsamples = 4\nvalue = [2, 2]"] ;
419 -> 421 ;
422 [label="entropy = 0.0\nsamples = 2\nvalue = [2, 0]"] ;
421 -> 422 ;
423 [label="entropy = 0.0\nsamples = 2\nvalue = [0, 2]"] ;
421 -> 423 ;
424 [label="entropy = 0.0\nsamples = 2\nvalue = [0, 2]"] ;
418 -> 424 ;
425 [label="entropy = 0.0\nsamples = 4\nvalue = [4, 0]"] ;
417 -> 425 ;
426 [label="entropy = 0.0\nsamples = 5\nvalue = [5, 0]"] ;
416 -> 426 ;
427 [label="entropy = 0.0\nsamples = 2\nvalue = [0, 2]"] ;
415 -> 427 ;
428 [label="X[12] <= 0.49\nentropy = 0.469\nsamples = 30\nvalue = [27, 3]"] ;
414 -> 428 ;
429 [label="X[6] <= 5.5\nentropy = 0.811\nsamples = 12\nvalue = [9, 3]"] ;
428 -> 429 ;
430 [label="X[2] <= 0.143\nentropy = 0.684\nsamples = 11\nvalue = [9, 2]"] ;
429 -> 430 ;
431 [label="entropy = 0.0\nsamples = 6\nvalue = [6, 0]"] ;
430 -> 431 ;
432 [label="X[0] <= 0.212\nentropy = 0.971\nsamples = 5\nvalue = [3, 2]"] ;
430 -> 432 ;
433 [label="entropy = 0.0\nsamples = 2\nvalue = [2, 0]"] ;
432 -> 433 ;
434 [label="X[4] <= 6.5\nentropy = 0.918\nsamples = 3\nvalue = [1, 2]"] ;
432 -> 434 ;
435 [label="entropy = 0.0\nsamples = 1\nvalue = [1, 0]"] ;
434 -> 435 ;
436 [label="entropy = 0.0\nsamples = 2\nvalue = [0, 2]"] ;
434 -> 436 ;
437 [label="entropy = 0.0\nsamples = 1\nvalue = [0, 1]"] ;
429 -> 437 ;
438 [label="entropy = 0.0\nsamples = 18\nvalue = [18, 0]"] ;
428 -> 438 ;
439 [label="X[2] <= 0.315\nentropy = 0.918\nsamples = 3\nvalue = [1, 2]"] ;
413 -> 439 ;
440 [label="entropy = 0.0\nsamples = 2\nvalue = [0, 2]"] ;
439 -> 440 ;
441 [label="entropy = 0.0\nsamples = 1\nvalue = [1, 0]"] ;
439 -> 441 ;
442 [label="entropy = 0.0\nsamples = 5\nvalue = [5, 0]"] ;
412 -> 442 ;
443 [label="entropy = 0.0\nsamples = 7\nvalue = [7, 0]"] ;
411 -> 443 ;
444 [label="entropy = 0.0\nsamples = 1\nvalue = [0, 1]"] ;
408 -> 444 ;
445 [label="entropy = 0.0\nsamples = 1\nvalue = [0, 1]"] ;
399 -> 445 ;
446 [label="X[0] <= 0.295\nentropy = 0.934\nsamples = 20\nvalue = [13, 7]"] ;
398 -> 446 ;
447 [label="X[2] <= 0.148\nentropy = 0.997\nsamples = 15\nvalue = [8, 7]"] ;
446 -> 447 ;
448 [label="X[0] <= 0.178\nentropy = 0.881\nsamples = 10\nvalue = [7, 3]"] ;
447 -> 448 ;
449 [label="entropy = 0.0\nsamples = 1\nvalue = [0, 1]"] ;
448 -> 449 ;
450 [label="X[0] <= 0.281\nentropy = 0.764\nsamples = 9\nvalue = [7, 2]"] ;
448 -> 450 ;
451 [label="entropy = 0.0\nsamples = 6\nvalue = [6, 0]"] ;
450 -> 451 ;
452 [label="X[3] <= 3.5\nentropy = 0.918\nsamples = 3\nvalue = [1, 2]"] ;
450 -> 452 ;
453 [label="entropy = 0.0\nsamples = 1\nvalue = [1, 0]"] ;
452 -> 453 ;
454 [label="entropy = 0.0\nsamples = 2\nvalue = [0, 2]"] ;
452 -> 454 ;
455 [label="X[8] <= 0.5\nentropy = 0.722\nsamples = 5\nvalue = [1, 4]"] ;
447 -> 455 ;
456 [label="entropy = 0.0\nsamples = 4\nvalue = [0, 4]"] ;
455 -> 456 ;
457 [label="entropy = 0.0\nsamples = 1\nvalue = [1, 0]"] ;
455 -> 457 ;
458 [label="entropy = 0.0\nsamples = 5\nvalue = [5, 0]"] ;
446 -> 458 ;
459 [label="entropy = 0.0\nsamples = 1\nvalue = [0, 1]"] ;
397 -> 459 ;
460 [label="X[7] <= 2.5\nentropy = 0.391\nsamples = 78\nvalue = [72, 6]"] ;
384 -> 460 ;
461 [label="X[3] <= 3.5\nentropy = 0.347\nsamples = 77\nvalue = [72, 5]"] ;
460 -> 461 ;
462 [label="entropy = 0.0\nsamples = 24\nvalue = [24, 0]"] ;
461 -> 462 ;
463 [label="X[12] <= 0.679\nentropy = 0.451\nsamples = 53\nvalue = [48, 5]"] ;
461 -> 463 ;
464 [label="X[2] <= 0.219\nentropy = 0.196\nsamples = 33\nvalue = [32, 1]"] ;
463 -> 464 ;
465 [label="entropy = 0.0\nsamples = 28\nvalue = [28, 0]"] ;
464 -> 465 ;
466 [label="X[2] <= 0.226\nentropy = 0.722\nsamples = 5\nvalue = [4, 1]"] ;
464 -> 466 ;
467 [label="entropy = 0.0\nsamples = 1\nvalue = [0, 1]"] ;
466 -> 467 ;
468 [label="entropy = 0.0\nsamples = 4\nvalue = [4, 0]"] ;
466 -> 468 ;
469 [label="X[0] <= 0.212\nentropy = 0.722\nsamples = 20\nvalue = [16, 4]"] ;
463 -> 469 ;
470 [label="X[12] <= 0.898\nentropy = 0.954\nsamples = 8\nvalue = [5, 3]"] ;
469 -> 470 ;
471 [label="X[6] <= 7.0\nentropy = 1.0\nsamples = 6\nvalue = [3, 3]"] ;
470 -> 471 ;
472 [label="entropy = 0.0\nsamples = 2\nvalue = [0, 2]"] ;
471 -> 472 ;
473 [label="X[4] <= 6.5\nentropy = 0.811\nsamples = 4\nvalue = [3, 1]"] ;
471 -> 473 ;
474 [label="X[2] <= 0.065\nentropy = 1.0\nsamples = 2\nvalue = [1, 1]"] ;
473 -> 474 ;
475 [label="entropy = 0.0\nsamples = 1\nvalue = [0, 1]"] ;
474 -> 475 ;
476 [label="entropy = 0.0\nsamples = 1\nvalue = [1, 0]"] ;
474 -> 476 ;
477 [label="entropy = 0.0\nsamples = 2\nvalue = [2, 0]"] ;
473 -> 477 ;
478 [label="entropy = 0.0\nsamples = 2\nvalue = [2, 0]"] ;
470 -> 478 ;
479 [label="X[1] <= 0.5\nentropy = 0.414\nsamples = 12\nvalue = [11, 1]"] ;
469 -> 479 ;
480 [label="entropy = 0.0\nsamples = 8\nvalue = [8, 0]"] ;
479 -> 480 ;
481 [label="X[6] <= 8.5\nentropy = 0.811\nsamples = 4\nvalue = [3, 1]"] ;
479 -> 481 ;
482 [label="entropy = 0.0\nsamples = 3\nvalue = [3, 0]"] ;
481 -> 482 ;
483 [label="entropy = 0.0\nsamples = 1\nvalue = [0, 1]"] ;
481 -> 483 ;
484 [label="entropy = 0.0\nsamples = 1\nvalue = [0, 1]"] ;
460 -> 484 ;
485 [label="X[2] <= 0.008\nentropy = 0.804\nsamples = 265\nvalue = [200, 65]"] ;
383 -> 485 ;
486 [label="entropy = 0.0\nsamples = 2\nvalue = [0, 2]"] ;
485 -> 486 ;
487 [label="X[2] <= 0.067\nentropy = 0.794\nsamples = 263\nvalue = [200, 63]"] ;
485 -> 487 ;
488 [label="X[2] <= 0.064\nentropy = 0.634\nsamples = 75\nvalue = [63, 12]"] ;
487 -> 488 ;
489 [label="X[3] <= 1.5\nentropy = 0.69\nsamples = 65\nvalue = [53, 12]"] ;
488 -> 489 ;
490 [label="entropy = 0.0\nsamples = 1\nvalue = [0, 1]"] ;
489 -> 490 ;
491 [label="X[2] <= 0.063\nentropy = 0.662\nsamples = 64\nvalue = [53, 11]"] ;
489 -> 491 ;
492 [label="X[0] <= 0.733\nentropy = 0.631\nsamples = 63\nvalue = [53, 10]"] ;
491 -> 492 ;
493 [label="X[11] <= 0.398\nentropy = 0.598\nsamples = 62\nvalue = [53, 9]"] ;
492 -> 493 ;
494 [label="X[2] <= 0.015\nentropy = 0.561\nsamples = 61\nvalue = [53, 8]"] ;
493 -> 494 ;
495 [label="X[2] <= 0.012\nentropy = 0.918\nsamples = 9\nvalue = [6, 3]"] ;
494 -> 495 ;
496 [label="entropy = 0.0\nsamples = 3\nvalue = [3, 0]"] ;
495 -> 496 ;
497 [label="X[3] <= 5.5\nentropy = 1.0\nsamples = 6\nvalue = [3, 3]"] ;
495 -> 497 ;
498 [label="X[2] <= 0.013\nentropy = 0.811\nsamples = 4\nvalue = [1, 3]"] ;
497 -> 498 ;
499 [label="X[2] <= 0.013\nentropy = 1.0\nsamples = 2\nvalue = [1, 1]"] ;
498 -> 499 ;
500 [label="entropy = 0.0\nsamples = 1\nvalue = [0, 1]"] ;
499 -> 500 ;
501 [label="entropy = 0.0\nsamples = 1\nvalue = [1, 0]"] ;
499 -> 501 ;
502 [label="entropy = 0.0\nsamples = 2\nvalue = [0, 2]"] ;
498 -> 502 ;
503 [label="entropy = 0.0\nsamples = 2\nvalue = [2, 0]"] ;
497 -> 503 ;
504 [label="X[6] <= 7.5\nentropy = 0.457\nsamples = 52\nvalue = [47, 5]"] ;
494 -> 504 ;
505 [label="X[4] <= 7.5\nentropy = 0.211\nsamples = 30\nvalue = [29, 1]"] ;
504 -> 505 ;
506 [label="entropy = 0.0\nsamples = 27\nvalue = [27, 0]"] ;
505 -> 506 ;
507 [label="X[2] <= 0.052\nentropy = 0.918\nsamples = 3\nvalue = [2, 1]"] ;
505 -> 507 ;
508 [label="entropy = 0.0\nsamples = 2\nvalue = [2, 0]"] ;
507 -> 508 ;
509 [label="entropy = 0.0\nsamples = 1\nvalue = [0, 1]"] ;
507 -> 509 ;
510 [label="X[12] <= 0.628\nentropy = 0.684\nsamples = 22\nvalue = [18, 4]"] ;
504 -> 510 ;
511 [label="X[2] <= 0.021\nentropy = 0.764\nsamples = 18\nvalue = [14, 4]"] ;
510 -> 511 ;
512 [label="entropy = 0.0\nsamples = 1\nvalue = [0, 1]"] ;
511 -> 512 ;
513 [label="X[2] <= 0.042\nentropy = 0.672\nsamples = 17\nvalue = [14, 3]"] ;
511 -> 513 ;
514 [label="entropy = 0.0\nsamples = 7\nvalue = [7, 0]"] ;
513 -> 514 ;
515 [label="X[2] <= 0.043\nentropy = 0.881\nsamples = 10\nvalue = [7, 3]"] ;
513 -> 515 ;
516 [label="entropy = 0.0\nsamples = 1\nvalue = [0, 1]"] ;
515 -> 516 ;
517 [label="X[0] <= 0.575\nentropy = 0.764\nsamples = 9\nvalue = [7, 2]"] ;
515 -> 517 ;
518 [label="X[2] <= 0.062\nentropy = 0.544\nsamples = 8\nvalue = [7, 1]"] ;
517 -> 518 ;
519 [label="entropy = 0.0\nsamples = 6\nvalue = [6, 0]"] ;
518 -> 519 ;
520 [label="X[0] <= 0.473\nentropy = 1.0\nsamples = 2\nvalue = [1, 1]"] ;
518 -> 520 ;
521 [label="entropy = 0.0\nsamples = 1\nvalue = [0, 1]"] ;
520 -> 521 ;
522 [label="entropy = 0.0\nsamples = 1\nvalue = [1, 0]"] ;
520 -> 522 ;
523 [label="entropy = 0.0\nsamples = 1\nvalue = [0, 1]"] ;
517 -> 523 ;
524 [label="entropy = 0.0\nsamples = 4\nvalue = [4, 0]"] ;
510 -> 524 ;
525 [label="entropy = 0.0\nsamples = 1\nvalue = [0, 1]"] ;
493 -> 525 ;
526 [label="entropy = 0.0\nsamples = 1\nvalue = [0, 1]"] ;
492 -> 526 ;
527 [label="entropy = 0.0\nsamples = 1\nvalue = [0, 1]"] ;
491 -> 527 ;
528 [label="entropy = 0.0\nsamples = 10\nvalue = [10, 0]"] ;
488 -> 528 ;
529 [label="X[2] <= 0.116\nentropy = 0.843\nsamples = 188\nvalue = [137, 51]"] ;
487 -> 529 ;
530 [label="X[8] <= 0.5\nentropy = 0.938\nsamples = 96\nvalue = [62, 34]"] ;
529 -> 530 ;
531 [label="X[10] <= 0.042\nentropy = 0.956\nsamples = 90\nvalue = [56, 34]"] ;
530 -> 531 ;
532 [label="X[12] <= 0.827\nentropy = 0.946\nsamples = 88\nvalue = [56, 32]"] ;
531 -> 532 ;
533 [label="X[2] <= 0.069\nentropy = 0.959\nsamples = 84\nvalue = [52, 32]"] ;
532 -> 533 ;
534 [label="entropy = 0.0\nsamples = 2\nvalue = [0, 2]"] ;
533 -> 534 ;
535 [label="X[2] <= 0.111\nentropy = 0.947\nsamples = 82\nvalue = [52, 30]"] ;
533 -> 535 ;
536 [label="X[6] <= 1.5\nentropy = 0.903\nsamples = 69\nvalue = [47, 22]"] ;
535 -> 536 ;
537 [label="X[2] <= 0.072\nentropy = 0.414\nsamples = 12\nvalue = [11, 1]"] ;
536 -> 537 ;
538 [label="X[12] <= 0.469\nentropy = 1.0\nsamples = 2\nvalue = [1, 1]"] ;
537 -> 538 ;
539 [label="entropy = 0.0\nsamples = 1\nvalue = [1, 0]"] ;
538 -> 539 ;
540 [label="entropy = 0.0\nsamples = 1\nvalue = [0, 1]"] ;
538 -> 540 ;
541 [label="entropy = 0.0\nsamples = 10\nvalue = [10, 0]"] ;
537 -> 541 ;
542 [label="X[12] <= 0.444\nentropy = 0.949\nsamples = 57\nvalue = [36, 21]"] ;
536 -> 542 ;
543 [label="entropy = 0.0\nsamples = 3\nvalue = [0, 3]"] ;
542 -> 543 ;
544 [label="X[1] <= 1.5\nentropy = 0.918\nsamples = 54\nvalue = [36, 18]"] ;
542 -> 544 ;
545 [label="X[0] <= 0.39\nentropy = 0.966\nsamples = 46\nvalue = [28, 18]"] ;
544 -> 545 ;
546 [label="entropy = 0.0\nsamples = 2\nvalue = [0, 2]"] ;
545 -> 546 ;
547 [label="X[0] <= 0.596\nentropy = 0.946\nsamples = 44\nvalue = [28, 16]"] ;
545 -> 547 ;
548 [label="X[0] <= 0.562\nentropy = 0.888\nsamples = 36\nvalue = [25, 11]"] ;
547 -> 548 ;
549 [label="X[12] <= 0.592\nentropy = 0.928\nsamples = 32\nvalue = [21, 11]"] ;
548 -> 549 ;
550 [label="X[0] <= 0.514\nentropy = 0.792\nsamples = 21\nvalue = [16, 5]"] ;
549 -> 550 ;
551 [label="X[1] <= 0.5\nentropy = 0.94\nsamples = 14\nvalue = [9, 5]"] ;
550 -> 551 ;
552 [label="X[6] <= 3.5\nentropy = 0.811\nsamples = 12\nvalue = [9, 3]"] ;
551 -> 552 ;
553 [label="X[12] <= 0.474\nentropy = 0.971\nsamples = 5\nvalue = [2, 3]"] ;
552 -> 553 ;
554 [label="entropy = 0.0\nsamples = 2\nvalue = [0, 2]"] ;
553 -> 554 ;
555 [label="X[0] <= 0.452\nentropy = 0.918\nsamples = 3\nvalue = [2, 1]"] ;
553 -> 555 ;
556 [label="entropy = 0.0\nsamples = 2\nvalue = [2, 0]"] ;
555 -> 556 ;
557 [label="entropy = 0.0\nsamples = 1\nvalue = [0, 1]"] ;
555 -> 557 ;
558 [label="entropy = 0.0\nsamples = 7\nvalue = [7, 0]"] ;
552 -> 558 ;
559 [label="entropy = 0.0\nsamples = 2\nvalue = [0, 2]"] ;
551 -> 559 ;
560 [label="entropy = 0.0\nsamples = 7\nvalue = [7, 0]"] ;
550 -> 560 ;
561 [label="X[3] <= 3.5\nentropy = 0.994\nsamples = 11\nvalue = [5, 6]"] ;
549 -> 561 ;
562 [label="entropy = 0.0\nsamples = 3\nvalue = [0, 3]"] ;
561 -> 562 ;
563 [label="X[1] <= 0.5\nentropy = 0.954\nsamples = 8\nvalue = [5, 3]"] ;
561 -> 563 ;
564 [label="X[2] <= 0.094\nentropy = 0.971\nsamples = 5\nvalue = [2, 3]"] ;
563 -> 564 ;
565 [label="X[2] <= 0.074\nentropy = 0.918\nsamples = 3\nvalue = [2, 1]"] ;
564 -> 565 ;
566 [label="entropy = 0.0\nsamples = 1\nvalue = [0, 1]"] ;
565 -> 566 ;
567 [label="entropy = 0.0\nsamples = 2\nvalue = [2, 0]"] ;
565 -> 567 ;
568 [label="entropy = 0.0\nsamples = 2\nvalue = [0, 2]"] ;
564 -> 568 ;
569 [label="entropy = 0.0\nsamples = 3\nvalue = [3, 0]"] ;
563 -> 569 ;
570 [label="entropy = 0.0\nsamples = 4\nvalue = [4, 0]"] ;
548 -> 570 ;
571 [label="X[2] <= 0.077\nentropy = 0.954\nsamples = 8\nvalue = [3, 5]"] ;
547 -> 571 ;
572 [label="entropy = 0.0\nsamples = 2\nvalue = [2, 0]"] ;
571 -> 572 ;
573 [label="X[0] <= 0.685\nentropy = 0.65\nsamples = 6\nvalue = [1, 5]"] ;
571 -> 573 ;
574 [label="entropy = 0.0\nsamples = 4\nvalue = [0, 4]"] ;
573 -> 574 ;
575 [label="X[4] <= 5.5\nentropy = 1.0\nsamples = 2\nvalue = [1, 1]"] ;
573 -> 575 ;
576 [label="entropy = 0.0\nsamples = 1\nvalue = [1, 0]"] ;
575 -> 576 ;
577 [label="entropy = 0.0\nsamples = 1\nvalue = [0, 1]"] ;
575 -> 577 ;
578 [label="entropy = 0.0\nsamples = 8\nvalue = [8, 0]"] ;
544 -> 578 ;
579 [label="X[3] <= 4.5\nentropy = 0.961\nsamples = 13\nvalue = [5, 8]"] ;
535 -> 579 ;
580 [label="X[1] <= 1.5\nentropy = 0.954\nsamples = 8\nvalue = [5, 3]"] ;
579 -> 580 ;
581 [label="X[2] <= 0.112\nentropy = 0.65\nsamples = 6\nvalue = [5, 1]"] ;
580 -> 581 ;
582 [label="entropy = 0.0\nsamples = 1\nvalue = [0, 1]"] ;
581 -> 582 ;
583 [label="entropy = 0.0\nsamples = 5\nvalue = [5, 0]"] ;
581 -> 583 ;
584 [label="entropy = 0.0\nsamples = 2\nvalue = [0, 2]"] ;
580 -> 584 ;
585 [label="entropy = 0.0\nsamples = 5\nvalue = [0, 5]"] ;
579 -> 585 ;
586 [label="entropy = 0.0\nsamples = 4\nvalue = [4, 0]"] ;
532 -> 586 ;
587 [label="entropy = 0.0\nsamples = 2\nvalue = [0, 2]"] ;
531 -> 587 ;
588 [label="entropy = 0.0\nsamples = 6\nvalue = [6, 0]"] ;
530 -> 588 ;
589 [label="X[12] <= 0.546\nentropy = 0.69\nsamples = 92\nvalue = [75, 17]"] ;
529 -> 589 ;
590 [label="X[3] <= 3.5\nentropy = 0.544\nsamples = 64\nvalue = [56, 8]"] ;
589 -> 590 ;
591 [label="X[0] <= 0.623\nentropy = 0.201\nsamples = 32\nvalue = [31, 1]"] ;
590 -> 591 ;
592 [label="entropy = 0.0\nsamples = 27\nvalue = [27, 0]"] ;
591 -> 592 ;
593 [label="X[0] <= 0.658\nentropy = 0.722\nsamples = 5\nvalue = [4, 1]"] ;
591 -> 593 ;
594 [label="entropy = 0.0\nsamples = 1\nvalue = [0, 1]"] ;
593 -> 594 ;
595 [label="entropy = 0.0\nsamples = 4\nvalue = [4, 0]"] ;
593 -> 595 ;
596 [label="X[0] <= 0.568\nentropy = 0.758\nsamples = 32\nvalue = [25, 7]"] ;
590 -> 596 ;
597 [label="X[1] <= 0.5\nentropy = 0.84\nsamples = 26\nvalue = [19, 7]"] ;
596 -> 597 ;
598 [label="X[3] <= 4.5\nentropy = 0.918\nsamples = 21\nvalue = [14, 7]"] ;
597 -> 598 ;
599 [label="X[2] <= 0.126\nentropy = 0.811\nsamples = 4\nvalue = [1, 3]"] ;
598 -> 599 ;
600 [label="entropy = 0.0\nsamples = 1\nvalue = [1, 0]"] ;
599 -> 600 ;
601 [label="entropy = 0.0\nsamples = 3\nvalue = [0, 3]"] ;
599 -> 601 ;
602 [label="X[6] <= 0.5\nentropy = 0.787\nsamples = 17\nvalue = [13, 4]"] ;
598 -> 602 ;
603 [label="entropy = 0.0\nsamples = 1\nvalue = [0, 1]"] ;
602 -> 603 ;
604 [label="X[2] <= 0.258\nentropy = 0.696\nsamples = 16\nvalue = [13, 3]"] ;
602 -> 604 ;
605 [label="X[2] <= 0.151\nentropy = 0.567\nsamples = 15\nvalue = [13, 2]"] ;
604 -> 605 ;
606 [label="X[3] <= 5.5\nentropy = 0.811\nsamples = 8\nvalue = [6, 2]"] ;
605 -> 606 ;
607 [label="entropy = 0.0\nsamples = 4\nvalue = [4, 0]"] ;
606 -> 607 ;
608 [label="X[0] <= 0.459\nentropy = 1.0\nsamples = 4\nvalue = [2, 2]"] ;
606 -> 608 ;
609 [label="entropy = 0.0\nsamples = 1\nvalue = [0, 1]"] ;
608 -> 609 ;
610 [label="X[2] <= 0.148\nentropy = 0.918\nsamples = 3\nvalue = [2, 1]"] ;
608 -> 610 ;
611 [label="entropy = 0.0\nsamples = 2\nvalue = [2, 0]"] ;
610 -> 611 ;
612 [label="entropy = 0.0\nsamples = 1\nvalue = [0, 1]"] ;
610 -> 612 ;
613 [label="entropy = 0.0\nsamples = 7\nvalue = [7, 0]"] ;
605 -> 613 ;
614 [label="entropy = 0.0\nsamples = 1\nvalue = [0, 1]"] ;
604 -> 614 ;
615 [label="entropy = 0.0\nsamples = 5\nvalue = [5, 0]"] ;
597 -> 615 ;
616 [label="entropy = 0.0\nsamples = 6\nvalue = [6, 0]"] ;
596 -> 616 ;
617 [label="X[6] <= 4.5\nentropy = 0.906\nsamples = 28\nvalue = [19, 9]"] ;
589 -> 617 ;
618 [label="X[8] <= 0.5\nentropy = 0.996\nsamples = 13\nvalue = [6, 7]"] ;
617 -> 618 ;
619 [label="X[6] <= 2.5\nentropy = 0.994\nsamples = 11\nvalue = [6, 5]"] ;
618 -> 619 ;
620 [label="X[2] <= 0.265\nentropy = 0.65\nsamples = 6\nvalue = [5, 1]"] ;
619 -> 620 ;
621 [label="entropy = 0.0\nsamples = 5\nvalue = [5, 0]"] ;
620 -> 621 ;
622 [label="entropy = 0.0\nsamples = 1\nvalue = [0, 1]"] ;
620 -> 622 ;
623 [label="X[2] <= 0.157\nentropy = 0.722\nsamples = 5\nvalue = [1, 4]"] ;
619 -> 623 ;
624 [label="entropy = 0.0\nsamples = 4\nvalue = [0, 4]"] ;
623 -> 624 ;
625 [label="entropy = 0.0\nsamples = 1\nvalue = [1, 0]"] ;
623 -> 625 ;
626 [label="entropy = 0.0\nsamples = 2\nvalue = [0, 2]"] ;
618 -> 626 ;
627 [label="X[2] <= 0.163\nentropy = 0.567\nsamples = 15\nvalue = [13, 2]"] ;
617 -> 627 ;
628 [label="entropy = 0.0\nsamples = 8\nvalue = [8, 0]"] ;
627 -> 628 ;
629 [label="X[2] <= 0.176\nentropy = 0.863\nsamples = 7\nvalue = [5, 2]"] ;
627 -> 629 ;
630 [label="entropy = 0.0\nsamples = 2\nvalue = [0, 2]"] ;
629 -> 630 ;
631 [label="entropy = 0.0\nsamples = 5\nvalue = [5, 0]"] ;
629 -> 631 ;
632 [label="entropy = 0.0\nsamples = 29\nvalue = [29, 0]"] ;
382 -> 632 ;
633 [label="X[11] <= 0.424\nentropy = 0.927\nsamples = 11088\nvalue = [7289, 3799]"] ;
3 -> 633 ;
634 [label="X[0] <= 0.226\nentropy = 0.909\nsamples = 10640\nvalue = [7186, 3454]"] ;
633 -> 634 ;
635 [label="X[0] <= 0.103\nentropy = 0.711\nsamples = 2884\nvalue = [2323, 561]"] ;
634 -> 635 ;
636 [label="X[12] <= 0.423\nentropy = 0.322\nsamples = 444\nvalue = [418, 26]"] ;
635 -> 636 ;
637 [label="X[12] <= 0.393\nentropy = 0.209\nsamples = 334\nvalue = [323, 11]"] ;
636 -> 637 ;
638 [label="entropy = 0.0\nsamples = 92\nvalue = [92, 0]"] ;
637 -> 638 ;
639 [label="X[6] <= 1.5\nentropy = 0.267\nsamples = 242\nvalue = [231, 11]"] ;
637 -> 639 ;
640 [label="entropy = 0.0\nsamples = 64\nvalue = [64, 0]"] ;
639 -> 640 ;
641 [label="X[6] <= 4.5\nentropy = 0.335\nsamples = 178\nvalue = [167, 11]"] ;
639 -> 641 ;
642 [label="X[6] <= 3.5\nentropy = 0.581\nsamples = 36\nvalue = [31, 5]"] ;
641 -> 642 ;
643 [label="X[2] <= 0.032\nentropy = 0.222\nsamples = 28\nvalue = [27, 1]"] ;
642 -> 643 ;
644 [label="X[2] <= 0.026\nentropy = 0.811\nsamples = 4\nvalue = [3, 1]"] ;
643 -> 644 ;
645 [label="entropy = 0.0\nsamples = 3\nvalue = [3, 0]"] ;
644 -> 645 ;
646 [label="entropy = 0.0\nsamples = 1\nvalue = [0, 1]"] ;
644 -> 646 ;
647 [label="entropy = 0.0\nsamples = 24\nvalue = [24, 0]"] ;
643 -> 647 ;
648 [label="X[7] <= 1.5\nentropy = 1.0\nsamples = 8\nvalue = [4, 4]"] ;
642 -> 648 ;
649 [label="X[2] <= 0.09\nentropy = 0.811\nsamples = 4\nvalue = [1, 3]"] ;
648 -> 649 ;
650 [label="entropy = 0.0\nsamples = 1\nvalue = [1, 0]"] ;
649 -> 650 ;
651 [label="entropy = 0.0\nsamples = 3\nvalue = [0, 3]"] ;
649 -> 651 ;
652 [label="X[4] <= 10.5\nentropy = 0.811\nsamples = 4\nvalue = [3, 1]"] ;
648 -> 652 ;
653 [label="entropy = 0.0\nsamples = 3\nvalue = [3, 0]"] ;
652 -> 653 ;
654 [label="entropy = 0.0\nsamples = 1\nvalue = [0, 1]"] ;
652 -> 654 ;
655 [label="X[10] <= 0.042\nentropy = 0.253\nsamples = 142\nvalue = [136, 6]"] ;
641 -> 655 ;
656 [label="X[2] <= 0.148\nentropy = 0.222\nsamples = 140\nvalue = [135, 5]"] ;
655 -> 656 ;
657 [label="X[2] <= 0.036\nentropy = 0.089\nsamples = 89\nvalue = [88, 1]"] ;
656 -> 657 ;
658 [label="X[2] <= 0.031\nentropy = 0.439\nsamples = 11\nvalue = [10, 1]"] ;
657 -> 658 ;
659 [label="entropy = 0.0\nsamples = 10\nvalue = [10, 0]"] ;
658 -> 659 ;
660 [label="entropy = 0.0\nsamples = 1\nvalue = [0, 1]"] ;
658 -> 660 ;
661 [label="entropy = 0.0\nsamples = 78\nvalue = [78, 0]"] ;
657 -> 661 ;
662 [label="X[4] <= 9.5\nentropy = 0.397\nsamples = 51\nvalue = [47, 4]"] ;
656 -> 662 ;
663 [label="entropy = 0.0\nsamples = 29\nvalue = [29, 0]"] ;
662 -> 663 ;
664 [label="X[2] <= 0.163\nentropy = 0.684\nsamples = 22\nvalue = [18, 4]"] ;
662 -> 664 ;
665 [label="entropy = 0.0\nsamples = 3\nvalue = [0, 3]"] ;
664 -> 665 ;
666 [label="X[2] <= 0.238\nentropy = 0.297\nsamples = 19\nvalue = [18, 1]"] ;
664 -> 666 ;
667 [label="entropy = 0.0\nsamples = 10\nvalue = [10, 0]"] ;
666 -> 667 ;
668 [label="X[2] <= 0.25\nentropy = 0.503\nsamples = 9\nvalue = [8, 1]"] ;
666 -> 668 ;
669 [label="entropy = 0.0\nsamples = 1\nvalue = [0, 1]"] ;
668 -> 669 ;
670 [label="entropy = 0.0\nsamples = 8\nvalue = [8, 0]"] ;
668 -> 670 ;
671 [label="X[9] <= 0.5\nentropy = 1.0\nsamples = 2\nvalue = [1, 1]"] ;
655 -> 671 ;
672 [label="entropy = 0.0\nsamples = 1\nvalue = [1, 0]"] ;
671 -> 672 ;
673 [label="entropy = 0.0\nsamples = 1\nvalue = [0, 1]"] ;
671 -> 673 ;
674 [label="X[6] <= 6.5\nentropy = 0.575\nsamples = 110\nvalue = [95, 15]"] ;
636 -> 674 ;
675 [label="X[6] <= 1.5\nentropy = 0.364\nsamples = 72\nvalue = [67, 5]"] ;
674 -> 675 ;
676 [label="X[1] <= 2.5\nentropy = 0.677\nsamples = 28\nvalue = [23, 5]"] ;
675 -> 676 ;
677 [label="X[2] <= 0.133\nentropy = 0.605\nsamples = 27\nvalue = [23, 4]"] ;
676 -> 677 ;
678 [label="X[6] <= 0.5\nentropy = 0.918\nsamples = 12\nvalue = [8, 4]"] ;
677 -> 678 ;
679 [label="entropy = 0.0\nsamples = 1\nvalue = [0, 1]"] ;
678 -> 679 ;
680 [label="X[2] <= 0.121\nentropy = 0.845\nsamples = 11\nvalue = [8, 3]"] ;
678 -> 680 ;
681 [label="X[4] <= 10.5\nentropy = 0.544\nsamples = 8\nvalue = [7, 1]"] ;
680 -> 681 ;
682 [label="entropy = 0.0\nsamples = 6\nvalue = [6, 0]"] ;
681 -> 682 ;
683 [label="X[12] <= 0.5\nentropy = 1.0\nsamples = 2\nvalue = [1, 1]"] ;
681 -> 683 ;
684 [label="entropy = 0.0\nsamples = 1\nvalue = [1, 0]"] ;
683 -> 684 ;
685 [label="entropy = 0.0\nsamples = 1\nvalue = [0, 1]"] ;
683 -> 685 ;
686 [label="X[4] <= 9.5\nentropy = 0.918\nsamples = 3\nvalue = [1, 2]"] ;
680 -> 686 ;
687 [label="entropy = 0.0\nsamples = 2\nvalue = [0, 2]"] ;
686 -> 687 ;
688 [label="entropy = 0.0\nsamples = 1\nvalue = [1, 0]"] ;
686 -> 688 ;
689 [label="entropy = 0.0\nsamples = 15\nvalue = [15, 0]"] ;
677 -> 689 ;
690 [label="entropy = 0.0\nsamples = 1\nvalue = [0, 1]"] ;
676 -> 690 ;
691 [label="entropy = 0.0\nsamples = 44\nvalue = [44, 0]"] ;
675 -> 691 ;
692 [label="X[2] <= 0.124\nentropy = 0.831\nsamples = 38\nvalue = [28, 10]"] ;
674 -> 692 ;
693 [label="X[12] <= 0.679\nentropy = 0.485\nsamples = 19\nvalue = [17, 2]"] ;
692 -> 693 ;
694 [label="X[2] <= 0.022\nentropy = 0.31\nsamples = 18\nvalue = [17, 1]"] ;
693 -> 694 ;
695 [label="X[6] <= 8.5\nentropy = 0.918\nsamples = 3\nvalue = [2, 1]"] ;
694 -> 695 ;
696 [label="entropy = 0.0\nsamples = 2\nvalue = [2, 0]"] ;
695 -> 696 ;
697 [label="entropy = 0.0\nsamples = 1\nvalue = [0, 1]"] ;
695 -> 697 ;
698 [label="entropy = 0.0\nsamples = 15\nvalue = [15, 0]"] ;
694 -> 698 ;
699 [label="entropy = 0.0\nsamples = 1\nvalue = [0, 1]"] ;
693 -> 699 ;
700 [label="X[12] <= 0.495\nentropy = 0.982\nsamples = 19\nvalue = [11, 8]"] ;
692 -> 700 ;
701 [label="X[3] <= 11.5\nentropy = 0.65\nsamples = 6\nvalue = [1, 5]"] ;
700 -> 701 ;
702 [label="entropy = 0.0\nsamples = 5\nvalue = [0, 5]"] ;
701 -> 702 ;
703 [label="entropy = 0.0\nsamples = 1\nvalue = [1, 0]"] ;
701 -> 703 ;
704 [label="X[2] <= 0.159\nentropy = 0.779\nsamples = 13\nvalue = [10, 3]"] ;
700 -> 704 ;
705 [label="entropy = 0.0\nsamples = 6\nvalue = [6, 0]"] ;
704 -> 705 ;
706 [label="X[12] <= 0.612\nentropy = 0.985\nsamples = 7\nvalue = [4, 3]"] ;
704 -> 706 ;
707 [label="X[2] <= 0.23\nentropy = 0.918\nsamples = 6\nvalue = [4, 2]"] ;
706 -> 707 ;
708 [label="entropy = 0.0\nsamples = 3\nvalue = [3, 0]"] ;
707 -> 708 ;
709 [label="X[2] <= 0.319\nentropy = 0.918\nsamples = 3\nvalue = [1, 2]"] ;
707 -> 709 ;
710 [label="entropy = 0.0\nsamples = 2\nvalue = [0, 2]"] ;
709 -> 710 ;
711 [label="entropy = 0.0\nsamples = 1\nvalue = [1, 0]"] ;
709 -> 711 ;
712 [label="entropy = 0.0\nsamples = 1\nvalue = [0, 1]"] ;
706 -> 712 ;
713 [label="X[3] <= 8.5\nentropy = 0.759\nsamples = 2440\nvalue = [1905, 535]"] ;
635 -> 713 ;
714 [label="X[0] <= 0.171\nentropy = 0.675\nsamples = 1367\nvalue = [1124, 243]"] ;
713 -> 714 ;
715 [label="X[10] <= 0.042\nentropy = 0.57\nsamples = 632\nvalue = [547, 85]"] ;
714 -> 715 ;
716 [label="X[6] <= 4.5\nentropy = 0.553\nsamples = 623\nvalue = [543, 80]"] ;
715 -> 716 ;
717 [label="X[12] <= 0.74\nentropy = 0.658\nsamples = 288\nvalue = [239, 49]"] ;
716 -> 717 ;
718 [label="X[0] <= 0.144\nentropy = 0.64\nsamples = 283\nvalue = [237, 46]"] ;
717 -> 718 ;
719 [label="X[7] <= 3.5\nentropy = 0.478\nsamples = 136\nvalue = [122, 14]"] ;
718 -> 719 ;
720 [label="X[2] <= 0.046\nentropy = 0.457\nsamples = 135\nvalue = [122, 13]"] ;
719 -> 720 ;
721 [label="entropy = 0.0\nsamples = 16\nvalue = [16, 0]"] ;
720 -> 721 ;
722 [label="X[2] <= 0.047\nentropy = 0.498\nsamples = 119\nvalue = [106, 13]"] ;
720 -> 722 ;
723 [label="entropy = 0.0\nsamples = 1\nvalue = [0, 1]"] ;
722 -> 723 ;
724 [label="X[2] <= 0.068\nentropy = 0.474\nsamples = 118\nvalue = [106, 12]"] ;
722 -> 724 ;
725 [label="entropy = 0.0\nsamples = 14\nvalue = [14, 0]"] ;
724 -> 725 ;
726 [label="X[2] <= 0.071\nentropy = 0.516\nsamples = 104\nvalue = [92, 12]"] ;
724 -> 726 ;
727 [label="entropy = 0.0\nsamples = 1\nvalue = [0, 1]"] ;
726 -> 727 ;
728 [label="X[0] <= 0.116\nentropy = 0.49\nsamples = 103\nvalue = [92, 11]"] ;
726 -> 728 ;
729 [label="X[2] <= 0.121\nentropy = 0.742\nsamples = 19\nvalue = [15, 4]"] ;
728 -> 729 ;
730 [label="X[2] <= 0.12\nentropy = 0.89\nsamples = 13\nvalue = [9, 4]"] ;
729 -> 730 ;
731 [label="X[12] <= 0.327\nentropy = 0.811\nsamples = 12\nvalue = [9, 3]"] ;
730 -> 731 ;
732 [label="entropy = 0.0\nsamples = 1\nvalue = [0, 1]"] ;
731 -> 732 ;
733 [label="X[12] <= 0.561\nentropy = 0.684\nsamples = 11\nvalue = [9, 2]"] ;
731 -> 733 ;
734 [label="X[2] <= 0.108\nentropy = 0.469\nsamples = 10\nvalue = [9, 1]"] ;
733 -> 734 ;
735 [label="entropy = 0.0\nsamples = 5\nvalue = [5, 0]"] ;
734 -> 735 ;
736 [label="X[2] <= 0.111\nentropy = 0.722\nsamples = 5\nvalue = [4, 1]"] ;
734 -> 736 ;
737 [label="entropy = 0.0\nsamples = 1\nvalue = [0, 1]"] ;
736 -> 737 ;
738 [label="entropy = 0.0\nsamples = 4\nvalue = [4, 0]"] ;
736 -> 738 ;
739 [label="entropy = 0.0\nsamples = 1\nvalue = [0, 1]"] ;
733 -> 739 ;
740 [label="entropy = 0.0\nsamples = 1\nvalue = [0, 1]"] ;
730 -> 740 ;
741 [label="entropy = 0.0\nsamples = 6\nvalue = [6, 0]"] ;
729 -> 741 ;
742 [label="X[12] <= 0.408\nentropy = 0.414\nsamples = 84\nvalue = [77, 7]"] ;
728 -> 742 ;
743 [label="X[2] <= 0.132\nentropy = 0.232\nsamples = 53\nvalue = [51, 2]"] ;
742 -> 743 ;
744 [label="X[2] <= 0.13\nentropy = 0.402\nsamples = 25\nvalue = [23, 2]"] ;
743 -> 744 ;
745 [label="X[0] <= 0.13\nentropy = 0.25\nsamples = 24\nvalue = [23, 1]"] ;
744 -> 745 ;
746 [label="entropy = 0.0\nsamples = 13\nvalue = [13, 0]"] ;
745 -> 746 ;
747 [label="X[2] <= 0.106\nentropy = 0.439\nsamples = 11\nvalue = [10, 1]"] ;
745 -> 747 ;
748 [label="entropy = 0.0\nsamples = 6\nvalue = [6, 0]"] ;
747 -> 748 ;
749 [label="X[2] <= 0.11\nentropy = 0.722\nsamples = 5\nvalue = [4, 1]"] ;
747 -> 749 ;
750 [label="entropy = 0.0\nsamples = 1\nvalue = [0, 1]"] ;
749 -> 750 ;
751 [label="entropy = 0.0\nsamples = 4\nvalue = [4, 0]"] ;
749 -> 751 ;
752 [label="entropy = 0.0\nsamples = 1\nvalue = [0, 1]"] ;
744 -> 752 ;
753 [label="entropy = 0.0\nsamples = 28\nvalue = [28, 0]"] ;
743 -> 753 ;
754 [label="X[2] <= 0.17\nentropy = 0.637\nsamples = 31\nvalue = [26, 5]"] ;
742 -> 754 ;
755 [label="X[12] <= 0.434\nentropy = 0.402\nsamples = 25\nvalue = [23, 2]"] ;
754 -> 755 ;
756 [label="entropy = 0.0\nsamples = 1\nvalue = [0, 1]"] ;
755 -> 756 ;
757 [label="X[2] <= 0.085\nentropy = 0.25\nsamples = 24\nvalue = [23, 1]"] ;
755 -> 757 ;
758 [label="X[2] <= 0.079\nentropy = 0.918\nsamples = 3\nvalue = [2, 1]"] ;
757 -> 758 ;
759 [label="entropy = 0.0\nsamples = 2\nvalue = [2, 0]"] ;
758 -> 759 ;
760 [label="entropy = 0.0\nsamples = 1\nvalue = [0, 1]"] ;
758 -> 760 ;
761 [label="entropy = 0.0\nsamples = 21\nvalue = [21, 0]"] ;
757 -> 761 ;
762 [label="X[6] <= 2.5\nentropy = 1.0\nsamples = 6\nvalue = [3, 3]"] ;
754 -> 762 ;
763 [label="X[6] <= 1.5\nentropy = 0.971\nsamples = 5\nvalue = [2, 3]"] ;
762 -> 763 ;
764 [label="X[12] <= 0.474\nentropy = 0.918\nsamples = 3\nvalue = [2, 1]"] ;
763 -> 764 ;
765 [label="entropy = 0.0\nsamples = 1\nvalue = [0, 1]"] ;
764 -> 765 ;
766 [label="entropy = 0.0\nsamples = 2\nvalue = [2, 0]"] ;
764 -> 766 ;
767 [label="entropy = 0.0\nsamples = 2\nvalue = [0, 2]"] ;
763 -> 767 ;
768 [label="entropy = 0.0\nsamples = 1\nvalue = [1, 0]"] ;
762 -> 768 ;
769 [label="entropy = 0.0\nsamples = 1\nvalue = [0, 1]"] ;
719 -> 769 ;
770 [label="X[6] <= 2.5\nentropy = 0.756\nsamples = 147\nvalue = [115, 32]"] ;
718 -> 770 ;
771 [label="X[12] <= 0.388\nentropy = 0.653\nsamples = 125\nvalue = [104, 21]"] ;
770 -> 771 ;
772 [label="entropy = 0.0\nsamples = 10\nvalue = [10, 0]"] ;
771 -> 772 ;
773 [label="X[8] <= 0.5\nentropy = 0.686\nsamples = 115\nvalue = [94, 21]"] ;
771 -> 773 ;
774 [label="X[2] <= 0.101\nentropy = 0.714\nsamples = 107\nvalue = [86, 21]"] ;
773 -> 774 ;
775 [label="X[2] <= 0.082\nentropy = 0.874\nsamples = 34\nvalue = [24, 10]"] ;
774 -> 775 ;
776 [label="X[7] <= 1.0\nentropy = 0.634\nsamples = 25\nvalue = [21, 4]"] ;
775 -> 776 ;
777 [label="entropy = 0.0\nsamples = 1\nvalue = [0, 1]"] ;
776 -> 777 ;
778 [label="X[12] <= 0.413\nentropy = 0.544\nsamples = 24\nvalue = [21, 3]"] ;
776 -> 778 ;
779 [label="X[1] <= 0.5\nentropy = 0.696\nsamples = 16\nvalue = [13, 3]"] ;
778 -> 779 ;
780 [label="X[2] <= 0.035\nentropy = 0.779\nsamples = 13\nvalue = [10, 3]"] ;
779 -> 780 ;
781 [label="X[2] <= 0.021\nentropy = 0.971\nsamples = 5\nvalue = [3, 2]"] ;
780 -> 781 ;
782 [label="entropy = 0.0\nsamples = 2\nvalue = [2, 0]"] ;
781 -> 782 ;
783 [label="X[2] <= 0.029\nentropy = 0.918\nsamples = 3\nvalue = [1, 2]"] ;
781 -> 783 ;
784 [label="entropy = 0.0\nsamples = 1\nvalue = [0, 1]"] ;
783 -> 784 ;
785 [label="X[2] <= 0.033\nentropy = 1.0\nsamples = 2\nvalue = [1, 1]"] ;
783 -> 785 ;
786 [label="entropy = 0.0\nsamples = 1\nvalue = [1, 0]"] ;
785 -> 786 ;
787 [label="entropy = 0.0\nsamples = 1\nvalue = [0, 1]"] ;
785 -> 787 ;
788 [label="X[6] <= 1.5\nentropy = 0.544\nsamples = 8\nvalue = [7, 1]"] ;
780 -> 788 ;
789 [label="entropy = 0.0\nsamples = 6\nvalue = [6, 0]"] ;
788 -> 789 ;
790 [label="X[2] <= 0.055\nentropy = 1.0\nsamples = 2\nvalue = [1, 1]"] ;
788 -> 790 ;
791 [label="entropy = 0.0\nsamples = 1\nvalue = [1, 0]"] ;
790 -> 791 ;
792 [label="entropy = 0.0\nsamples = 1\nvalue = [0, 1]"] ;
790 -> 792 ;
793 [label="entropy = 0.0\nsamples = 3\nvalue = [3, 0]"] ;
779 -> 793 ;
794 [label="entropy = 0.0\nsamples = 8\nvalue = [8, 0]"] ;
778 -> 794 ;
795 [label="X[2] <= 0.086\nentropy = 0.918\nsamples = 9\nvalue = [3, 6]"] ;
775 -> 795 ;
796 [label="entropy = 0.0\nsamples = 2\nvalue = [0, 2]"] ;
795 -> 796 ;
797 [label="X[2] <= 0.093\nentropy = 0.985\nsamples = 7\nvalue = [3, 4]"] ;
795 -> 797 ;
798 [label="entropy = 0.0\nsamples = 2\nvalue = [2, 0]"] ;
797 -> 798 ;
799 [label="X[0] <= 0.158\nentropy = 0.722\nsamples = 5\nvalue = [1, 4]"] ;
797 -> 799 ;
800 [label="X[13] <= 9.5\nentropy = 1.0\nsamples = 2\nvalue = [1, 1]"] ;
799 -> 800 ;
801 [label="entropy = 0.0\nsamples = 1\nvalue = [1, 0]"] ;
800 -> 801 ;
802 [label="entropy = 0.0\nsamples = 1\nvalue = [0, 1]"] ;
800 -> 802 ;
803 [label="entropy = 0.0\nsamples = 3\nvalue = [0, 3]"] ;
799 -> 803 ;
804 [label="X[1] <= 4.5\nentropy = 0.612\nsamples = 73\nvalue = [62, 11]"] ;
774 -> 804 ;
805 [label="X[2] <= 0.182\nentropy = 0.581\nsamples = 72\nvalue = [62, 10]"] ;
804 -> 805 ;
806 [label="X[2] <= 0.132\nentropy = 0.457\nsamples = 52\nvalue = [47, 5]"] ;
805 -> 806 ;
807 [label="X[2] <= 0.131\nentropy = 0.663\nsamples = 29\nvalue = [24, 5]"] ;
806 -> 807 ;
808 [label="X[2] <= 0.113\nentropy = 0.592\nsamples = 28\nvalue = [24, 4]"] ;
807 -> 808 ;
809 [label="entropy = 0.0\nsamples = 5\nvalue = [5, 0]"] ;
808 -> 809 ;
810 [label="X[2] <= 0.12\nentropy = 0.667\nsamples = 23\nvalue = [19, 4]"] ;
808 -> 810 ;
811 [label="X[0] <= 0.158\nentropy = 0.881\nsamples = 10\nvalue = [7, 3]"] ;
810 -> 811 ;
812 [label="X[12] <= 0.449\nentropy = 0.985\nsamples = 7\nvalue = [4, 3]"] ;
811 -> 812 ;
813 [label="X[2] <= 0.12\nentropy = 0.918\nsamples = 3\nvalue = [1, 2]"] ;
812 -> 813 ;
814 [label="entropy = 0.0\nsamples = 2\nvalue = [0, 2]"] ;
813 -> 814 ;
815 [label="entropy = 0.0\nsamples = 1\nvalue = [1, 0]"] ;
813 -> 815 ;
816 [label="X[2] <= 0.12\nentropy = 0.811\nsamples = 4\nvalue = [3, 1]"] ;
812 -> 816 ;
817 [label="entropy = 0.0\nsamples = 3\nvalue = [3, 0]"] ;
816 -> 817 ;
818 [label="entropy = 0.0\nsamples = 1\nvalue = [0, 1]"] ;
816 -> 818 ;
819 [label="entropy = 0.0\nsamples = 3\nvalue = [3, 0]"] ;
811 -> 819 ;
820 [label="X[2] <= 0.129\nentropy = 0.391\nsamples = 13\nvalue = [12, 1]"] ;
810 -> 820 ;
821 [label="entropy = 0.0\nsamples = 9\nvalue = [9, 0]"] ;
820 -> 821 ;
822 [label="X[12] <= 0.423\nentropy = 0.811\nsamples = 4\nvalue = [3, 1]"] ;
820 -> 822 ;
823 [label="X[2] <= 0.13\nentropy = 1.0\nsamples = 2\nvalue = [1, 1]"] ;
822 -> 823 ;
824 [label="entropy = 0.0\nsamples = 1\nvalue = [0, 1]"] ;
823 -> 824 ;
825 [label="entropy = 0.0\nsamples = 1\nvalue = [1, 0]"] ;
823 -> 825 ;
826 [label="entropy = 0.0\nsamples = 2\nvalue = [2, 0]"] ;
822 -> 826 ;
827 [label="entropy = 0.0\nsamples = 1\nvalue = [0, 1]"] ;
807 -> 827 ;
828 [label="entropy = 0.0\nsamples = 23\nvalue = [23, 0]"] ;
806 -> 828 ;
829 [label="X[2] <= 0.189\nentropy = 0.811\nsamples = 20\nvalue = [15, 5]"] ;
805 -> 829 ;
830 [label="entropy = 0.0\nsamples = 1\nvalue = [0, 1]"] ;
829 -> 830 ;
831 [label="X[12] <= 0.418\nentropy = 0.742\nsamples = 19\nvalue = [15, 4]"] ;
829 -> 831 ;
832 [label="X[6] <= 1.5\nentropy = 0.439\nsamples = 11\nvalue = [10, 1]"] ;
831 -> 832 ;
833 [label="entropy = 0.0\nsamples = 8\nvalue = [8, 0]"] ;
832 -> 833 ;
834 [label="X[2] <= 0.238\nentropy = 0.918\nsamples = 3\nvalue = [2, 1]"] ;
832 -> 834 ;
835 [label="entropy = 0.0\nsamples = 1\nvalue = [0, 1]"] ;
834 -> 835 ;
836 [label="entropy = 0.0\nsamples = 2\nvalue = [2, 0]"] ;
834 -> 836 ;
837 [label="X[2] <= 0.236\nentropy = 0.954\nsamples = 8\nvalue = [5, 3]"] ;
831 -> 837 ;
838 [label="X[2] <= 0.199\nentropy = 0.65\nsamples = 6\nvalue = [5, 1]"] ;
837 -> 838 ;
839 [label="X[1] <= 2.0\nentropy = 1.0\nsamples = 2\nvalue = [1, 1]"] ;
838 -> 839 ;
840 [label="entropy = 0.0\nsamples = 1\nvalue = [0, 1]"] ;
839 -> 840 ;
841 [label="entropy = 0.0\nsamples = 1\nvalue = [1, 0]"] ;
839 -> 841 ;
842 [label="entropy = 0.0\nsamples = 4\nvalue = [4, 0]"] ;
838 -> 842 ;
843 [label="entropy = 0.0\nsamples = 2\nvalue = [0, 2]"] ;
837 -> 843 ;
844 [label="entropy = 0.0\nsamples = 1\nvalue = [0, 1]"] ;
804 -> 844 ;
845 [label="entropy = 0.0\nsamples = 8\nvalue = [8, 0]"] ;
773 -> 845 ;
846 [label="X[2] <= 0.076\nentropy = 1.0\nsamples = 22\nvalue = [11, 11]"] ;
770 -> 846 ;
847 [label="X[2] <= 0.04\nentropy = 0.65\nsamples = 6\nvalue = [1, 5]"] ;
846 -> 847 ;
848 [label="X[1] <= 1.0\nentropy = 1.0\nsamples = 2\nvalue = [1, 1]"] ;
847 -> 848 ;
849 [label="entropy = 0.0\nsamples = 1\nvalue = [1, 0]"] ;
848 -> 849 ;
850 [label="entropy = 0.0\nsamples = 1\nvalue = [0, 1]"] ;
848 -> 850 ;
851 [label="entropy = 0.0\nsamples = 4\nvalue = [0, 4]"] ;
847 -> 851 ;
852 [label="X[2] <= 0.125\nentropy = 0.954\nsamples = 16\nvalue = [10, 6]"] ;
846 -> 852 ;
853 [label="X[7] <= 1.0\nentropy = 0.544\nsamples = 8\nvalue = [7, 1]"] ;
852 -> 853 ;
854 [label="entropy = 0.0\nsamples = 1\nvalue = [0, 1]"] ;
853 -> 854 ;
855 [label="entropy = 0.0\nsamples = 7\nvalue = [7, 0]"] ;
853 -> 855 ;
856 [label="X[2] <= 0.244\nentropy = 0.954\nsamples = 8\nvalue = [3, 5]"] ;
852 -> 856 ;
857 [label="X[12] <= 0.474\nentropy = 0.65\nsamples = 6\nvalue = [1, 5]"] ;
856 -> 857 ;
858 [label="entropy = 0.0\nsamples = 4\nvalue = [0, 4]"] ;
857 -> 858 ;
859 [label="X[2] <= 0.177\nentropy = 1.0\nsamples = 2\nvalue = [1, 1]"] ;
857 -> 859 ;
860 [label="entropy = 0.0\nsamples = 1\nvalue = [1, 0]"] ;
859 -> 860 ;
861 [label="entropy = 0.0\nsamples = 1\nvalue = [0, 1]"] ;
859 -> 861 ;
862 [label="entropy = 0.0\nsamples = 2\nvalue = [2, 0]"] ;
856 -> 862 ;
863 [label="X[2] <= 0.095\nentropy = 0.971\nsamples = 5\nvalue = [2, 3]"] ;
717 -> 863 ;
864 [label="entropy = 0.0\nsamples = 2\nvalue = [0, 2]"] ;
863 -> 864 ;
865 [label="X[1] <= 2.0\nentropy = 0.918\nsamples = 3\nvalue = [2, 1]"] ;
863 -> 865 ;
866 [label="entropy = 0.0\nsamples = 2\nvalue = [2, 0]"] ;
865 -> 866 ;
867 [label="entropy = 0.0\nsamples = 1\nvalue = [0, 1]"] ;
865 -> 867 ;
868 [label="X[2] <= 0.179\nentropy = 0.445\nsamples = 335\nvalue = [304, 31]"] ;
716 -> 868 ;
869 [label="X[2] <= 0.139\nentropy = 0.492\nsamples = 289\nvalue = [258, 31]"] ;
868 -> 869 ;
870 [label="X[2] <= 0.1\nentropy = 0.392\nsamples = 246\nvalue = [227, 19]"] ;
869 -> 870 ;
871 [label="X[2] <= 0.099\nentropy = 0.511\nsamples = 132\nvalue = [117, 15]"] ;
870 -> 871 ;
872 [label="X[7] <= 0.5\nentropy = 0.49\nsamples = 131\nvalue = [117, 14]"] ;
871 -> 872 ;
873 [label="X[13] <= 10.5\nentropy = 0.811\nsamples = 20\nvalue = [15, 5]"] ;
872 -> 873 ;
874 [label="X[12] <= 0.347\nentropy = 0.918\nsamples = 15\nvalue = [10, 5]"] ;
873 -> 874 ;
875 [label="entropy = 0.0\nsamples = 4\nvalue = [4, 0]"] ;
874 -> 875 ;
876 [label="X[6] <= 6.5\nentropy = 0.994\nsamples = 11\nvalue = [6, 5]"] ;
874 -> 876 ;
877 [label="X[0] <= 0.158\nentropy = 0.722\nsamples = 5\nvalue = [4, 1]"] ;
876 -> 877 ;
878 [label="entropy = 0.0\nsamples = 4\nvalue = [4, 0]"] ;
877 -> 878 ;
879 [label="entropy = 0.0\nsamples = 1\nvalue = [0, 1]"] ;
877 -> 879 ;
880 [label="X[6] <= 10.0\nentropy = 0.918\nsamples = 6\nvalue = [2, 4]"] ;
876 -> 880 ;
881 [label="entropy = 0.0\nsamples = 3\nvalue = [0, 3]"] ;
880 -> 881 ;
882 [label="X[0] <= 0.151\nentropy = 0.918\nsamples = 3\nvalue = [2, 1]"] ;
880 -> 882 ;
883 [label="entropy = 0.0\nsamples = 1\nvalue = [0, 1]"] ;
882 -> 883 ;
884 [label="entropy = 0.0\nsamples = 2\nvalue = [2, 0]"] ;
882 -> 884 ;
885 [label="entropy = 0.0\nsamples = 5\nvalue = [5, 0]"] ;
873 -> 885 ;
886 [label="X[0] <= 0.158\nentropy = 0.406\nsamples = 111\nvalue = [102, 9]"] ;
872 -> 886 ;
887 [label="X[6] <= 8.5\nentropy = 0.52\nsamples = 77\nvalue = [68, 9]"] ;
886 -> 887 ;
888 [label="X[0] <= 0.144\nentropy = 0.327\nsamples = 50\nvalue = [47, 3]"] ;
887 -> 888 ;
889 [label="entropy = 0.0\nsamples = 33\nvalue = [33, 0]"] ;
888 -> 889 ;
890 [label="X[12] <= 0.474\nentropy = 0.672\nsamples = 17\nvalue = [14, 3]"] ;
888 -> 890 ;
891 [label="X[2] <= 0.073\nentropy = 0.353\nsamples = 15\nvalue = [14, 1]"] ;
890 -> 891 ;
892 [label="entropy = 0.0\nsamples = 10\nvalue = [10, 0]"] ;
891 -> 892 ;
893 [label="X[2] <= 0.086\nentropy = 0.722\nsamples = 5\nvalue = [4, 1]"] ;
891 -> 893 ;
894 [label="entropy = 0.0\nsamples = 1\nvalue = [0, 1]"] ;
893 -> 894 ;
895 [label="entropy = 0.0\nsamples = 4\nvalue = [4, 0]"] ;
893 -> 895 ;
896 [label="entropy = 0.0\nsamples = 2\nvalue = [0, 2]"] ;
890 -> 896 ;
897 [label="X[6] <= 12.0\nentropy = 0.764\nsamples = 27\nvalue = [21, 6]"] ;
887 -> 897 ;
898 [label="X[12] <= 0.474\nentropy = 0.881\nsamples = 20\nvalue = [14, 6]"] ;
897 -> 898 ;
899 [label="X[12] <= 0.372\nentropy = 0.985\nsamples = 14\nvalue = [8, 6]"] ;
898 -> 899 ;
900 [label="entropy = 0.0\nsamples = 3\nvalue = [3, 0]"] ;
899 -> 900 ;
901 [label="X[12] <= 0.418\nentropy = 0.994\nsamples = 11\nvalue = [5, 6]"] ;
899 -> 901 ;
902 [label="X[1] <= 2.5\nentropy = 0.991\nsamples = 9\nvalue = [5, 4]"] ;
901 -> 902 ;
903 [label="X[2] <= 0.082\nentropy = 0.863\nsamples = 7\nvalue = [5, 2]"] ;
902 -> 903 ;
904 [label="X[2] <= 0.05\nentropy = 0.65\nsamples = 6\nvalue = [5, 1]"] ;
903 -> 904 ;
905 [label="X[2] <= 0.04\nentropy = 1.0\nsamples = 2\nvalue = [1, 1]"] ;
904 -> 905 ;
906 [label="entropy = 0.0\nsamples = 1\nvalue = [1, 0]"] ;
905 -> 906 ;
907 [label="entropy = 0.0\nsamples = 1\nvalue = [0, 1]"] ;
905 -> 907 ;
908 [label="entropy = 0.0\nsamples = 4\nvalue = [4, 0]"] ;
904 -> 908 ;
909 [label="entropy = 0.0\nsamples = 1\nvalue = [0, 1]"] ;
903 -> 909 ;
910 [label="entropy = 0.0\nsamples = 2\nvalue = [0, 2]"] ;
902 -> 910 ;
911 [label="entropy = 0.0\nsamples = 2\nvalue = [0, 2]"] ;
901 -> 911 ;
912 [label="entropy = 0.0\nsamples = 6\nvalue = [6, 0]"] ;
898 -> 912 ;
913 [label="entropy = 0.0\nsamples = 7\nvalue = [7, 0]"] ;
897 -> 913 ;
914 [label="entropy = 0.0\nsamples = 34\nvalue = [34, 0]"] ;
886 -> 914 ;
915 [label="entropy = 0.0\nsamples = 1\nvalue = [0, 1]"] ;
871 -> 915 ;
916 [label="X[13] <= 17.0\nentropy = 0.219\nsamples = 114\nvalue = [110, 4]"] ;
870 -> 916 ;
917 [label="X[12] <= 0.49\nentropy = 0.181\nsamples = 110\nvalue = [107, 3]"] ;
916 -> 917 ;
918 [label="X[2] <= 0.111\nentropy = 0.091\nsamples = 86\nvalue = [85, 1]"] ;
917 -> 918 ;
919 [label="X[2] <= 0.11\nentropy = 0.31\nsamples = 18\nvalue = [17, 1]"] ;
918 -> 919 ;
920 [label="entropy = 0.0\nsamples = 17\nvalue = [17, 0]"] ;
919 -> 920 ;
921 [label="entropy = 0.0\nsamples = 1\nvalue = [0, 1]"] ;
919 -> 921 ;
922 [label="entropy = 0.0\nsamples = 68\nvalue = [68, 0]"] ;
918 -> 922 ;
923 [label="X[0] <= 0.144\nentropy = 0.414\nsamples = 24\nvalue = [22, 2]"] ;
917 -> 923 ;
924 [label="X[12] <= 0.536\nentropy = 0.65\nsamples = 12\nvalue = [10, 2]"] ;
923 -> 924 ;
925 [label="X[12] <= 0.51\nentropy = 0.863\nsamples = 7\nvalue = [5, 2]"] ;
924 -> 925 ;
926 [label="X[2] <= 0.121\nentropy = 0.65\nsamples = 6\nvalue = [5, 1]"] ;
925 -> 926 ;
927 [label="X[0] <= 0.13\nentropy = 1.0\nsamples = 2\nvalue = [1, 1]"] ;
926 -> 927 ;
928 [label="entropy = 0.0\nsamples = 1\nvalue = [1, 0]"] ;
927 -> 928 ;
929 [label="entropy = 0.0\nsamples = 1\nvalue = [0, 1]"] ;
927 -> 929 ;
930 [label="entropy = 0.0\nsamples = 4\nvalue = [4, 0]"] ;
926 -> 930 ;
931 [label="entropy = 0.0\nsamples = 1\nvalue = [0, 1]"] ;
925 -> 931 ;
932 [label="entropy = 0.0\nsamples = 5\nvalue = [5, 0]"] ;
924 -> 932 ;
933 [label="entropy = 0.0\nsamples = 12\nvalue = [12, 0]"] ;
923 -> 933 ;
934 [label="X[9] <= 0.5\nentropy = 0.811\nsamples = 4\nvalue = [3, 1]"] ;
916 -> 934 ;
935 [label="entropy = 0.0\nsamples = 1\nvalue = [0, 1]"] ;
934 -> 935 ;
936 [label="entropy = 0.0\nsamples = 3\nvalue = [3, 0]"] ;
934 -> 936 ;
937 [label="X[1] <= 3.5\nentropy = 0.854\nsamples = 43\nvalue = [31, 12]"] ;
869 -> 937 ;
938 [label="X[12] <= 0.434\nentropy = 0.769\nsamples = 40\nvalue = [31, 9]"] ;
937 -> 938 ;
939 [label="X[0] <= 0.13\nentropy = 0.439\nsamples = 22\nvalue = [20, 2]"] ;
938 -> 939 ;
940 [label="X[2] <= 0.162\nentropy = 0.619\nsamples = 13\nvalue = [11, 2]"] ;
939 -> 940 ;
941 [label="X[2] <= 0.16\nentropy = 0.764\nsamples = 9\nvalue = [7, 2]"] ;
940 -> 941 ;
942 [label="X[2] <= 0.149\nentropy = 0.544\nsamples = 8\nvalue = [7, 1]"] ;
941 -> 942 ;
943 [label="X[2] <= 0.145\nentropy = 0.918\nsamples = 3\nvalue = [2, 1]"] ;
942 -> 943 ;
944 [label="entropy = 0.0\nsamples = 2\nvalue = [2, 0]"] ;
943 -> 944 ;
945 [label="entropy = 0.0\nsamples = 1\nvalue = [0, 1]"] ;
943 -> 945 ;
946 [label="entropy = 0.0\nsamples = 5\nvalue = [5, 0]"] ;
942 -> 946 ;
947 [label="entropy = 0.0\nsamples = 1\nvalue = [0, 1]"] ;
941 -> 947 ;
948 [label="entropy = 0.0\nsamples = 4\nvalue = [4, 0]"] ;
940 -> 948 ;
949 [label="entropy = 0.0\nsamples = 9\nvalue = [9, 0]"] ;
939 -> 949 ;
950 [label="X[2] <= 0.146\nentropy = 0.964\nsamples = 18\nvalue = [11, 7]"] ;
938 -> 950 ;
951 [label="entropy = 0.0\nsamples = 2\nvalue = [0, 2]"] ;
950 -> 951 ;
952 [label="X[2] <= 0.154\nentropy = 0.896\nsamples = 16\nvalue = [11, 5]"] ;
950 -> 952 ;
953 [label="entropy = 0.0\nsamples = 5\nvalue = [5, 0]"] ;
952 -> 953 ;
954 [label="X[8] <= 0.5\nentropy = 0.994\nsamples = 11\nvalue = [6, 5]"] ;
952 -> 954 ;
955 [label="X[2] <= 0.157\nentropy = 0.918\nsamples = 9\nvalue = [6, 3]"] ;
954 -> 955 ;
956 [label="entropy = 0.0\nsamples = 2\nvalue = [0, 2]"] ;
955 -> 956 ;
957 [label="X[6] <= 8.5\nentropy = 0.592\nsamples = 7\nvalue = [6, 1]"] ;
955 -> 957 ;
958 [label="entropy = 0.0\nsamples = 4\nvalue = [4, 0]"] ;
957 -> 958 ;
959 [label="X[12] <= 0.526\nentropy = 0.918\nsamples = 3\nvalue = [2, 1]"] ;
957 -> 959 ;
960 [label="entropy = 0.0\nsamples = 1\nvalue = [0, 1]"] ;
959 -> 960 ;
961 [label="entropy = 0.0\nsamples = 2\nvalue = [2, 0]"] ;
959 -> 961 ;
962 [label="entropy = 0.0\nsamples = 2\nvalue = [0, 2]"] ;
954 -> 962 ;
963 [label="entropy = 0.0\nsamples = 3\nvalue = [0, 3]"] ;
937 -> 963 ;
964 [label="entropy = 0.0\nsamples = 46\nvalue = [46, 0]"] ;
868 -> 964 ;
965 [label="X[10] <= 0.047\nentropy = 0.991\nsamples = 9\nvalue = [4, 5]"] ;
715 -> 965 ;
966 [label="entropy = 0.0\nsamples = 5\nvalue = [0, 5]"] ;
965 -> 966 ;
967 [label="entropy = 0.0\nsamples = 4\nvalue = [4, 0]"] ;
965 -> 967 ;
968 [label="X[6] <= 11.5\nentropy = 0.751\nsamples = 735\nvalue = [577, 158]"] ;
714 -> 968 ;
969 [label="X[12] <= 0.454\nentropy = 0.775\nsamples = 684\nvalue = [528, 156]"] ;
968 -> 969 ;
970 [label="X[2] <= 0.055\nentropy = 0.707\nsamples = 488\nvalue = [394, 94]"] ;
969 -> 970 ;
971 [label="X[2] <= 0.009\nentropy = 0.41\nsamples = 73\nvalue = [67, 6]"] ;
970 -> 971 ;
972 [label="X[6] <= 3.0\nentropy = 0.918\nsamples = 3\nvalue = [1, 2]"] ;
971 -> 972 ;
973 [label="entropy = 0.0\nsamples = 1\nvalue = [1, 0]"] ;
972 -> 973 ;
974 [label="entropy = 0.0\nsamples = 2\nvalue = [0, 2]"] ;
972 -> 974 ;
975 [label="X[6] <= 0.5\nentropy = 0.316\nsamples = 70\nvalue = [66, 4]"] ;
971 -> 975 ;
976 [label="entropy = 0.0\nsamples = 1\nvalue = [0, 1]"] ;
975 -> 976 ;
977 [label="X[13] <= 17.5\nentropy = 0.258\nsamples = 69\nvalue = [66, 3]"] ;
975 -> 977 ;
978 [label="X[2] <= 0.025\nentropy = 0.191\nsamples = 68\nvalue = [66, 2]"] ;
977 -> 978 ;
979 [label="X[2] <= 0.025\nentropy = 0.391\nsamples = 26\nvalue = [24, 2]"] ;
978 -> 979 ;
980 [label="X[6] <= 2.5\nentropy = 0.242\nsamples = 25\nvalue = [24, 1]"] ;
979 -> 980 ;
981 [label="X[2] <= 0.02\nentropy = 0.592\nsamples = 7\nvalue = [6, 1]"] ;
980 -> 981 ;
982 [label="entropy = 0.0\nsamples = 6\nvalue = [6, 0]"] ;
981 -> 982 ;
983 [label="entropy = 0.0\nsamples = 1\nvalue = [0, 1]"] ;
981 -> 983 ;
984 [label="entropy = 0.0\nsamples = 18\nvalue = [18, 0]"] ;
980 -> 984 ;
985 [label="entropy = 0.0\nsamples = 1\nvalue = [0, 1]"] ;
979 -> 985 ;
986 [label="entropy = 0.0\nsamples = 42\nvalue = [42, 0]"] ;
978 -> 986 ;
987 [label="entropy = 0.0\nsamples = 1\nvalue = [0, 1]"] ;
977 -> 987 ;
988 [label="X[2] <= 0.061\nentropy = 0.745\nsamples = 415\nvalue = [327, 88]"] ;
970 -> 988 ;
989 [label="X[11] <= 0.192\nentropy = 0.961\nsamples = 13\nvalue = [5, 8]"] ;
988 -> 989 ;
990 [label="X[6] <= 10.0\nentropy = 0.722\nsamples = 10\nvalue = [2, 8]"] ;
989 -> 990 ;
991 [label="X[2] <= 0.057\nentropy = 0.503\nsamples = 9\nvalue = [1, 8]"] ;
990 -> 991 ;
992 [label="X[2] <= 0.056\nentropy = 0.918\nsamples = 3\nvalue = [1, 2]"] ;
991 -> 992 ;
993 [label="entropy = 0.0\nsamples = 2\nvalue = [0, 2]"] ;
992 -> 993 ;
994 [label="entropy = 0.0\nsamples = 1\nvalue = [1, 0]"] ;
992 -> 994 ;
995 [label="entropy = 0.0\nsamples = 6\nvalue = [0, 6]"] ;
991 -> 995 ;
996 [label="entropy = 0.0\nsamples = 1\nvalue = [1, 0]"] ;
990 -> 996 ;
997 [label="entropy = 0.0\nsamples = 3\nvalue = [3, 0]"] ;
989 -> 997 ;
998 [label="X[8] <= 0.5\nentropy = 0.72\nsamples = 402\nvalue = [322, 80]"] ;
988 -> 998 ;
999 [label="X[12] <= 0.388\nentropy = 0.755\nsamples = 359\nvalue = [281, 78]"] ;
998 -> 999 ;
1000 [label="X[2] <= 0.129\nentropy = 0.33\nsamples = 33\nvalue = [31, 2]"] ;
999 -> 1000 ;
1001 [label="entropy = 0.0\nsamples = 24\nvalue = [24, 0]"] ;
1000 -> 1001 ;
1002 [label="X[2] <= 0.134\nentropy = 0.764\nsamples = 9\nvalue = [7, 2]"] ;
1000 -> 1002 ;
1003 [label="entropy = 0.0\nsamples = 1\nvalue = [0, 1]"] ;
1002 -> 1003 ;
1004 [label="X[7] <= 1.0\nentropy = 0.544\nsamples = 8\nvalue = [7, 1]"] ;
1002 -> 1004 ;
1005 [label="X[0] <= 0.212\nentropy = 0.918\nsamples = 3\nvalue = [2, 1]"] ;
1004 -> 1005 ;
1006 [label="entropy = 0.0\nsamples = 2\nvalue = [2, 0]"] ;
1005 -> 1006 ;
1007 [label="entropy = 0.0\nsamples = 1\nvalue = [0, 1]"] ;
1005 -> 1007 ;
1008 [label="entropy = 0.0\nsamples = 5\nvalue = [5, 0]"] ;
1004 -> 1008 ;
1009 [label="X[1] <= 1.5\nentropy = 0.783\nsamples = 326\nvalue = [250, 76]"] ;
999 -> 1009 ;
1010 [label="X[13] <= 15.0\nentropy = 0.74\nsamples = 282\nvalue = [223, 59]"] ;
1009 -> 1010 ;
1011 [label="X[12] <= 0.434\nentropy = 0.75\nsamples = 275\nvalue = [216, 59]"] ;
1010 -> 1011 ;
1012 [label="X[2] <= 0.069\nentropy = 0.777\nsamples = 244\nvalue = [188, 56]"] ;
1011 -> 1012 ;
1013 [label="X[2] <= 0.064\nentropy = 0.997\nsamples = 15\nvalue = [8, 7]"] ;
1012 -> 1013 ;
1014 [label="entropy = 0.0\nsamples = 5\nvalue = [5, 0]"] ;
1013 -> 1014 ;
1015 [label="X[6] <= 0.5\nentropy = 0.881\nsamples = 10\nvalue = [3, 7]"] ;
1013 -> 1015 ;
1016 [label="entropy = 0.0\nsamples = 1\nvalue = [1, 0]"] ;
1015 -> 1016 ;
1017 [label="X[2] <= 0.067\nentropy = 0.764\nsamples = 9\nvalue = [2, 7]"] ;
1015 -> 1017 ;
1018 [label="entropy = 0.0\nsamples = 4\nvalue = [0, 4]"] ;
1017 -> 1018 ;
1019 [label="X[2] <= 0.068\nentropy = 0.971\nsamples = 5\nvalue = [2, 3]"] ;
1017 -> 1019 ;
1020 [label="entropy = 0.0\nsamples = 1\nvalue = [1, 0]"] ;
1019 -> 1020 ;
1021 [label="X[2] <= 0.068\nentropy = 0.811\nsamples = 4\nvalue = [1, 3]"] ;
1019 -> 1021 ;
1022 [label="entropy = 0.0\nsamples = 2\nvalue = [0, 2]"] ;
1021 -> 1022 ;
1023 [label="X[2] <= 0.068\nentropy = 1.0\nsamples = 2\nvalue = [1, 1]"] ;
1021 -> 1023 ;
1024 [label="entropy = 0.0\nsamples = 1\nvalue = [1, 0]"] ;
1023 -> 1024 ;
1025 [label="entropy = 0.0\nsamples = 1\nvalue = [0, 1]"] ;
1023 -> 1025 ;
1026 [label="X[2] <= 0.082\nentropy = 0.749\nsamples = 229\nvalue = [180, 49]"] ;
1012 -> 1026 ;
1027 [label="X[2] <= 0.072\nentropy = 0.222\nsamples = 28\nvalue = [27, 1]"] ;
1026 -> 1027 ;
1028 [label="X[2] <= 0.072\nentropy = 0.439\nsamples = 11\nvalue = [10, 1]"] ;
1027 -> 1028 ;
1029 [label="entropy = 0.0\nsamples = 10\nvalue = [10, 0]"] ;
1028 -> 1029 ;
1030 [label="entropy = 0.0\nsamples = 1\nvalue = [0, 1]"] ;
1028 -> 1030 ;
1031 [label="entropy = 0.0\nsamples = 17\nvalue = [17, 0]"] ;
1027 -> 1031 ;
1032 [label="X[2] <= 0.095\nentropy = 0.793\nsamples = 201\nvalue = [153, 48]"] ;
1026 -> 1032 ;
1033 [label="X[0] <= 0.212\nentropy = 0.998\nsamples = 17\nvalue = [8, 9]"] ;
1032 -> 1033 ;
1034 [label="X[0] <= 0.185\nentropy = 0.918\nsamples = 12\nvalue = [4, 8]"] ;
1033 -> 1034 ;
1035 [label="X[6] <= 8.0\nentropy = 0.811\nsamples = 4\nvalue = [3, 1]"] ;
1034 -> 1035 ;
1036 [label="entropy = 0.0\nsamples = 2\nvalue = [2, 0]"] ;
1035 -> 1036 ;
1037 [label="X[2] <= 0.084\nentropy = 1.0\nsamples = 2\nvalue = [1, 1]"] ;
1035 -> 1037 ;
1038 [label="entropy = 0.0\nsamples = 1\nvalue = [0, 1]"] ;
1037 -> 1038 ;
1039 [label="entropy = 0.0\nsamples = 1\nvalue = [1, 0]"] ;
1037 -> 1039 ;
1040 [label="X[2] <= 0.089\nentropy = 0.544\nsamples = 8\nvalue = [1, 7]"] ;
1034 -> 1040 ;
1041 [label="entropy = 0.0\nsamples = 5\nvalue = [0, 5]"] ;
1040 -> 1041 ;
1042 [label="X[7] <= 1.0\nentropy = 0.918\nsamples = 3\nvalue = [1, 2]"] ;
1040 -> 1042 ;
1043 [label="entropy = 0.0\nsamples = 1\nvalue = [1, 0]"] ;
1042 -> 1043 ;
1044 [label="entropy = 0.0\nsamples = 2\nvalue = [0, 2]"] ;
1042 -> 1044 ;
1045 [label="X[6] <= 1.5\nentropy = 0.722\nsamples = 5\nvalue = [4, 1]"] ;
1033 -> 1045 ;
1046 [label="entropy = 0.0\nsamples = 3\nvalue = [3, 0]"] ;
1045 -> 1046 ;
1047 [label="X[6] <= 3.5\nentropy = 1.0\nsamples = 2\nvalue = [1, 1]"] ;
1045 -> 1047 ;
1048 [label="entropy = 0.0\nsamples = 1\nvalue = [0, 1]"] ;
1047 -> 1048 ;
1049 [label="entropy = 0.0\nsamples = 1\nvalue = [1, 0]"] ;
1047 -> 1049 ;
1050 [label="X[10] <= 0.033\nentropy = 0.745\nsamples = 184\nvalue = [145, 39]"] ;
1032 -> 1050 ;
1051 [label="X[10] <= 0.03\nentropy = 0.765\nsamples = 175\nvalue = [136, 39]"] ;
1050 -> 1051 ;
1052 [label="X[0] <= 0.199\nentropy = 0.749\nsamples = 173\nvalue = [136, 37]"] ;
1051 -> 1052 ;
1053 [label="X[12] <= 0.408\nentropy = 0.868\nsamples = 76\nvalue = [54, 22]"] ;
1052 -> 1053 ;
1054 [label="X[2] <= 0.1\nentropy = 0.842\nsamples = 74\nvalue = [54, 20]"] ;
1053 -> 1054 ;
1055 [label="entropy = 0.0\nsamples = 5\nvalue = [5, 0]"] ;
1054 -> 1055 ;
1056 [label="X[2] <= 0.101\nentropy = 0.869\nsamples = 69\nvalue = [49, 20]"] ;
1054 -> 1056 ;
1057 [label="entropy = 0.0\nsamples = 1\nvalue = [0, 1]"] ;
1056 -> 1057 ;
1058 [label="X[6] <= 10.0\nentropy = 0.855\nsamples = 68\nvalue = [49, 19]"] ;
1056 -> 1058 ;
1059 [label="X[2] <= 0.268\nentropy = 0.84\nsamples = 67\nvalue = [49, 18]"] ;
1058 -> 1059 ;
1060 [label="X[0] <= 0.185\nentropy = 0.798\nsamples = 62\nvalue = [47, 15]"] ;
1059 -> 1060 ;
1061 [label="X[2] <= 0.162\nentropy = 0.614\nsamples = 33\nvalue = [28, 5]"] ;
1060 -> 1061 ;
1062 [label="X[2] <= 0.158\nentropy = 0.722\nsamples = 25\nvalue = [20, 5]"] ;
1061 -> 1062 ;
1063 [label="X[2] <= 0.131\nentropy = 0.65\nsamples = 24\nvalue = [20, 4]"] ;
1062 -> 1063 ;
1064 [label="X[6] <= 0.5\nentropy = 0.837\nsamples = 15\nvalue = [11, 4]"] ;
1063 -> 1064 ;
1065 [label="entropy = 0.0\nsamples = 1\nvalue = [0, 1]"] ;
1064 -> 1065 ;
1066 [label="X[6] <= 2.5\nentropy = 0.75\nsamples = 14\nvalue = [11, 3]"] ;
1064 -> 1066 ;
1067 [label="entropy = 0.0\nsamples = 4\nvalue = [4, 0]"] ;
1066 -> 1067 ;
1068 [label="X[2] <= 0.103\nentropy = 0.881\nsamples = 10\nvalue = [7, 3]"] ;
1066 -> 1068 ;
1069 [label="entropy = 0.0\nsamples = 1\nvalue = [0, 1]"] ;
1068 -> 1069 ;
1070 [label="X[2] <= 0.12\nentropy = 0.764\nsamples = 9\nvalue = [7, 2]"] ;
1068 -> 1070 ;
1071 [label="entropy = 0.0\nsamples = 4\nvalue = [4, 0]"] ;
1070 -> 1071 ;
1072 [label="X[2] <= 0.122\nentropy = 0.971\nsamples = 5\nvalue = [3, 2]"] ;
1070 -> 1072 ;
1073 [label="entropy = 0.0\nsamples = 1\nvalue = [0, 1]"] ;
1072 -> 1073 ;
1074 [label="X[2] <= 0.128\nentropy = 0.811\nsamples = 4\nvalue = [3, 1]"] ;
1072 -> 1074 ;
1075 [label="entropy = 0.0\nsamples = 2\nvalue = [2, 0]"] ;
1074 -> 1075 ;
1076 [label="X[6] <= 7.0\nentropy = 1.0\nsamples = 2\nvalue = [1, 1]"] ;
1074 -> 1076 ;
1077 [label="entropy = 0.0\nsamples = 1\nvalue = [0, 1]"] ;
1076 -> 1077 ;
1078 [label="entropy = 0.0\nsamples = 1\nvalue = [1, 0]"] ;
1076 -> 1078 ;
1079 [label="entropy = 0.0\nsamples = 9\nvalue = [9, 0]"] ;
1063 -> 1079 ;
1080 [label="entropy = 0.0\nsamples = 1\nvalue = [0, 1]"] ;
1062 -> 1080 ;
1081 [label="entropy = 0.0\nsamples = 8\nvalue = [8, 0]"] ;
1061 -> 1081 ;
1082 [label="X[2] <= 0.111\nentropy = 0.929\nsamples = 29\nvalue = [19, 10]"] ;
1060 -> 1082 ;
1083 [label="entropy = 0.0\nsamples = 3\nvalue = [3, 0]"] ;
1082 -> 1083 ;
1084 [label="X[2] <= 0.118\nentropy = 0.961\nsamples = 26\nvalue = [16, 10]"] ;
1082 -> 1084 ;
1085 [label="entropy = 0.0\nsamples = 2\nvalue = [0, 2]"] ;
1084 -> 1085 ;
1086 [label="X[2] <= 0.128\nentropy = 0.918\nsamples = 24\nvalue = [16, 8]"] ;
1084 -> 1086 ;
1087 [label="entropy = 0.0\nsamples = 4\nvalue = [4, 0]"] ;
1086 -> 1087 ;
1088 [label="X[1] <= 0.5\nentropy = 0.971\nsamples = 20\nvalue = [12, 8]"] ;
1086 -> 1088 ;
1089 [label="X[2] <= 0.128\nentropy = 0.918\nsamples = 18\nvalue = [12, 6]"] ;
1088 -> 1089 ;
1090 [label="entropy = 0.0\nsamples = 1\nvalue = [0, 1]"] ;
1089 -> 1090 ;
1091 [label="X[2] <= 0.203\nentropy = 0.874\nsamples = 17\nvalue = [12, 5]"] ;
1089 -> 1091 ;
1092 [label="X[2] <= 0.137\nentropy = 0.65\nsamples = 12\nvalue = [10, 2]"] ;
1091 -> 1092 ;
1093 [label="entropy = 0.0\nsamples = 3\nvalue = [3, 0]"] ;
1092 -> 1093 ;
1094 [label="X[2] <= 0.144\nentropy = 0.764\nsamples = 9\nvalue = [7, 2]"] ;
1092 -> 1094 ;
1095 [label="entropy = 0.0\nsamples = 1\nvalue = [0, 1]"] ;
1094 -> 1095 ;
1096 [label="X[2] <= 0.166\nentropy = 0.544\nsamples = 8\nvalue = [7, 1]"] ;
1094 -> 1096 ;
1097 [label="entropy = 0.0\nsamples = 4\nvalue = [4, 0]"] ;
1096 -> 1097 ;
1098 [label="X[2] <= 0.177\nentropy = 0.811\nsamples = 4\nvalue = [3, 1]"] ;
1096 -> 1098 ;
1099 [label="entropy = 0.0\nsamples = 1\nvalue = [0, 1]"] ;
1098 -> 1099 ;
1100 [label="entropy = 0.0\nsamples = 3\nvalue = [3, 0]"] ;
1098 -> 1100 ;
1101 [label="X[2] <= 0.244\nentropy = 0.971\nsamples = 5\nvalue = [2, 3]"] ;
1091 -> 1101 ;
1102 [label="entropy = 0.0\nsamples = 3\nvalue = [0, 3]"] ;
1101 -> 1102 ;
1103 [label="entropy = 0.0\nsamples = 2\nvalue = [2, 0]"] ;
1101 -> 1103 ;
1104 [label="entropy = 0.0\nsamples = 2\nvalue = [0, 2]"] ;
1088 -> 1104 ;
1105 [label="X[0] <= 0.185\nentropy = 0.971\nsamples = 5\nvalue = [2, 3]"] ;
1059 -> 1105 ;
1106 [label="entropy = 0.0\nsamples = 3\nvalue = [0, 3]"] ;
1105 -> 1106 ;
1107 [label="entropy = 0.0\nsamples = 2\nvalue = [2, 0]"] ;
1105 -> 1107 ;
1108 [label="entropy = 0.0\nsamples = 1\nvalue = [0, 1]"] ;
1058 -> 1108 ;
1109 [label="entropy = 0.0\nsamples = 2\nvalue = [0, 2]"] ;
1053 -> 1109 ;
1110 [label="X[2] <= 0.115\nentropy = 0.621\nsamples = 97\nvalue = [82, 15]"] ;
1052 -> 1110 ;
1111 [label="entropy = 0.0\nsamples = 18\nvalue = [18, 0]"] ;
1110 -> 1111 ;
1112 [label="X[2] <= 0.115\nentropy = 0.701\nsamples = 79\nvalue = [64, 15]"] ;
1110 -> 1112 ;
1113 [label="entropy = 0.0\nsamples = 2\nvalue = [0, 2]"] ;
1112 -> 1113 ;
1114 [label="X[6] <= 6.5\nentropy = 0.655\nsamples = 77\nvalue = [64, 13]"] ;
1112 -> 1114 ;
1115 [label="X[13] <= 9.5\nentropy = 0.71\nsamples = 67\nvalue = [54, 13]"] ;
1114 -> 1115 ;
1116 [label="X[2] <= 0.166\nentropy = 0.684\nsamples = 66\nvalue = [54, 12]"] ;
1115 -> 1116 ;
1117 [label="X[2] <= 0.141\nentropy = 0.792\nsamples = 42\nvalue = [32, 10]"] ;
1116 -> 1117 ;
1118 [label="X[2] <= 0.124\nentropy = 0.491\nsamples = 28\nvalue = [25, 3]"] ;
1117 -> 1118 ;
1119 [label="X[2] <= 0.124\nentropy = 0.845\nsamples = 11\nvalue = [8, 3]"] ;
1118 -> 1119 ;
1120 [label="X[2] <= 0.117\nentropy = 0.503\nsamples = 9\nvalue = [8, 1]"] ;
1119 -> 1120 ;
1121 [label="X[6] <= 5.5\nentropy = 1.0\nsamples = 2\nvalue = [1, 1]"] ;
1120 -> 1121 ;
1122 [label="entropy = 0.0\nsamples = 1\nvalue = [1, 0]"] ;
1121 -> 1122 ;
1123 [label="entropy = 0.0\nsamples = 1\nvalue = [0, 1]"] ;
1121 -> 1123 ;
1124 [label="entropy = 0.0\nsamples = 7\nvalue = [7, 0]"] ;
1120 -> 1124 ;
1125 [label="entropy = 0.0\nsamples = 2\nvalue = [0, 2]"] ;
1119 -> 1125 ;
1126 [label="entropy = 0.0\nsamples = 17\nvalue = [17, 0]"] ;
1118 -> 1126 ;
1127 [label="X[2] <= 0.144\nentropy = 1.0\nsamples = 14\nvalue = [7, 7]"] ;
1117 -> 1127 ;
1128 [label="entropy = 0.0\nsamples = 2\nvalue = [0, 2]"] ;
1127 -> 1128 ;
1129 [label="X[2] <= 0.164\nentropy = 0.98\nsamples = 12\nvalue = [7, 5]"] ;
1127 -> 1129 ;
1130 [label="X[2] <= 0.15\nentropy = 0.881\nsamples = 10\nvalue = [7, 3]"] ;
1129 -> 1130 ;
1131 [label="X[2] <= 0.146\nentropy = 0.971\nsamples = 5\nvalue = [2, 3]"] ;
1130 -> 1131 ;
1132 [label="entropy = 0.0\nsamples = 2\nvalue = [2, 0]"] ;
1131 -> 1132 ;
1133 [label="entropy = 0.0\nsamples = 3\nvalue = [0, 3]"] ;
1131 -> 1133 ;
1134 [label="entropy = 0.0\nsamples = 5\nvalue = [5, 0]"] ;
1130 -> 1134 ;
1135 [label="entropy = 0.0\nsamples = 2\nvalue = [0, 2]"] ;
1129 -> 1135 ;
1136 [label="X[6] <= 1.5\nentropy = 0.414\nsamples = 24\nvalue = [22, 2]"] ;
1116 -> 1136 ;
1137 [label="entropy = 0.0\nsamples = 13\nvalue = [13, 0]"] ;
1136 -> 1137 ;
1138 [label="X[6] <= 2.5\nentropy = 0.684\nsamples = 11\nvalue = [9, 2]"] ;
1136 -> 1138 ;
1139 [label="entropy = 0.0\nsamples = 1\nvalue = [0, 1]"] ;
1138 -> 1139 ;
1140 [label="X[2] <= 0.21\nentropy = 0.469\nsamples = 10\nvalue = [9, 1]"] ;
1138 -> 1140 ;
1141 [label="entropy = 0.0\nsamples = 5\nvalue = [5, 0]"] ;
1140 -> 1141 ;
1142 [label="X[2] <= 0.225\nentropy = 0.722\nsamples = 5\nvalue = [4, 1]"] ;
1140 -> 1142 ;
1143 [label="entropy = 0.0\nsamples = 1\nvalue = [0, 1]"] ;
1142 -> 1143 ;
1144 [label="entropy = 0.0\nsamples = 4\nvalue = [4, 0]"] ;
1142 -> 1144 ;
1145 [label="entropy = 0.0\nsamples = 1\nvalue = [0, 1]"] ;
1115 -> 1145 ;
1146 [label="entropy = 0.0\nsamples = 10\nvalue = [10, 0]"] ;
1114 -> 1146 ;
1147 [label="entropy = 0.0\nsamples = 2\nvalue = [0, 2]"] ;
1051 -> 1147 ;
1148 [label="entropy = 0.0\nsamples = 9\nvalue = [9, 0]"] ;
1050 -> 1148 ;
1149 [label="X[0] <= 0.212\nentropy = 0.459\nsamples = 31\nvalue = [28, 3]"] ;
1011 -> 1149 ;
1150 [label="X[6] <= 8.5\nentropy = 0.242\nsamples = 25\nvalue = [24, 1]"] ;
1149 -> 1150 ;
1151 [label="entropy = 0.0\nsamples = 22\nvalue = [22, 0]"] ;
1150 -> 1151 ;
1152 [label="X[0] <= 0.185\nentropy = 0.918\nsamples = 3\nvalue = [2, 1]"] ;
1150 -> 1152 ;
1153 [label="entropy = 0.0\nsamples = 2\nvalue = [2, 0]"] ;
1152 -> 1153 ;
1154 [label="entropy = 0.0\nsamples = 1\nvalue = [0, 1]"] ;
1152 -> 1154 ;
1155 [label="X[12] <= 0.444\nentropy = 0.918\nsamples = 6\nvalue = [4, 2]"] ;
1149 -> 1155 ;
1156 [label="entropy = 0.0\nsamples = 1\nvalue = [0, 1]"] ;
1155 -> 1156 ;
1157 [label="X[2] <= 0.157\nentropy = 0.722\nsamples = 5\nvalue = [4, 1]"] ;
1155 -> 1157 ;
1158 [label="entropy = 0.0\nsamples = 3\nvalue = [3, 0]"] ;
1157 -> 1158 ;
1159 [label="X[6] <= 5.5\nentropy = 1.0\nsamples = 2\nvalue = [1, 1]"] ;
1157 -> 1159 ;
1160 [label="entropy = 0.0\nsamples = 1\nvalue = [0, 1]"] ;
1159 -> 1160 ;
1161 [label="entropy = 0.0\nsamples = 1\nvalue = [1, 0]"] ;
1159 -> 1161 ;
1162 [label="entropy = 0.0\nsamples = 7\nvalue = [7, 0]"] ;
1010 -> 1162 ;
1163 [label="X[9] <= 0.5\nentropy = 0.962\nsamples = 44\nvalue = [27, 17]"] ;
1009 -> 1163 ;
1164 [label="entropy = 0.0\nsamples = 3\nvalue = [0, 3]"] ;
1163 -> 1164 ;
1165 [label="X[0] <= 0.199\nentropy = 0.926\nsamples = 41\nvalue = [27, 14]"] ;
1163 -> 1165 ;
1166 [label="X[6] <= 5.5\nentropy = 0.998\nsamples = 19\nvalue = [9, 10]"] ;
1165 -> 1166 ;
1167 [label="X[2] <= 0.069\nentropy = 0.544\nsamples = 8\nvalue = [7, 1]"] ;
1166 -> 1167 ;
1168 [label="entropy = 0.0\nsamples = 1\nvalue = [0, 1]"] ;
1167 -> 1168 ;
1169 [label="entropy = 0.0\nsamples = 7\nvalue = [7, 0]"] ;
1167 -> 1169 ;
1170 [label="X[1] <= 4.5\nentropy = 0.684\nsamples = 11\nvalue = [2, 9]"] ;
1166 -> 1170 ;
1171 [label="entropy = 0.0\nsamples = 8\nvalue = [0, 8]"] ;
1170 -> 1171 ;
1172 [label="X[2] <= 0.078\nentropy = 0.918\nsamples = 3\nvalue = [2, 1]"] ;
1170 -> 1172 ;
1173 [label="entropy = 0.0\nsamples = 1\nvalue = [1, 0]"] ;
1172 -> 1173 ;
1174 [label="X[6] <= 9.5\nentropy = 1.0\nsamples = 2\nvalue = [1, 1]"] ;
1172 -> 1174 ;
1175 [label="entropy = 0.0\nsamples = 1\nvalue = [1, 0]"] ;
1174 -> 1175 ;
1176 [label="entropy = 0.0\nsamples = 1\nvalue = [0, 1]"] ;
1174 -> 1176 ;
1177 [label="X[2] <= 0.085\nentropy = 0.684\nsamples = 22\nvalue = [18, 4]"] ;
1165 -> 1177 ;
1178 [label="X[2] <= 0.07\nentropy = 0.985\nsamples = 7\nvalue = [4, 3]"] ;
1177 -> 1178 ;
1179 [label="entropy = 0.0\nsamples = 3\nvalue = [3, 0]"] ;
1178 -> 1179 ;
1180 [label="X[6] <= 10.0\nentropy = 0.811\nsamples = 4\nvalue = [1, 3]"] ;
1178 -> 1180 ;
1181 [label="entropy = 0.0\nsamples = 3\nvalue = [0, 3]"] ;
1180 -> 1181 ;
1182 [label="entropy = 0.0\nsamples = 1\nvalue = [1, 0]"] ;
1180 -> 1182 ;
1183 [label="X[2] <= 0.204\nentropy = 0.353\nsamples = 15\nvalue = [14, 1]"] ;
1177 -> 1183 ;
1184 [label="entropy = 0.0\nsamples = 12\nvalue = [12, 0]"] ;
1183 -> 1184 ;
1185 [label="X[0] <= 0.212\nentropy = 0.918\nsamples = 3\nvalue = [2, 1]"] ;
1183 -> 1185 ;
1186 [label="entropy = 0.0\nsamples = 2\nvalue = [2, 0]"] ;
1185 -> 1186 ;
1187 [label="entropy = 0.0\nsamples = 1\nvalue = [0, 1]"] ;
1185 -> 1187 ;
1188 [label="X[6] <= 10.0\nentropy = 0.271\nsamples = 43\nvalue = [41, 2]"] ;
998 -> 1188 ;
1189 [label="X[12] <= 0.423\nentropy = 0.165\nsamples = 41\nvalue = [40, 1]"] ;
1188 -> 1189 ;
1190 [label="entropy = 0.0\nsamples = 38\nvalue = [38, 0]"] ;
1189 -> 1190 ;
1191 [label="X[0] <= 0.185\nentropy = 0.918\nsamples = 3\nvalue = [2, 1]"] ;
1189 -> 1191 ;
1192 [label="entropy = 0.0\nsamples = 1\nvalue = [1, 0]"] ;
1191 -> 1192 ;
1193 [label="X[1] <= 1.0\nentropy = 1.0\nsamples = 2\nvalue = [1, 1]"] ;
1191 -> 1193 ;
1194 [label="entropy = 0.0\nsamples = 1\nvalue = [0, 1]"] ;
1193 -> 1194 ;
1195 [label="entropy = 0.0\nsamples = 1\nvalue = [1, 0]"] ;
1193 -> 1195 ;
1196 [label="X[0] <= 0.185\nentropy = 1.0\nsamples = 2\nvalue = [1, 1]"] ;
1188 -> 1196 ;
1197 [label="entropy = 0.0\nsamples = 1\nvalue = [1, 0]"] ;
1196 -> 1197 ;
1198 [label="entropy = 0.0\nsamples = 1\nvalue = [0, 1]"] ;
1196 -> 1198 ;
1199 [label="X[2] <= 0.139\nentropy = 0.9\nsamples = 196\nvalue = [134, 62]"] ;
969 -> 1199 ;
1200 [label="X[13] <= 3.0\nentropy = 0.947\nsamples = 137\nvalue = [87, 50]"] ;
1199 -> 1200 ;
1201 [label="X[1] <= 4.5\nentropy = 0.926\nsamples = 132\nvalue = [87, 45]"] ;
1200 -> 1201 ;
1202 [label="X[1] <= 0.5\nentropy = 0.916\nsamples = 130\nvalue = [87, 43]"] ;
1201 -> 1202 ;
1203 [label="X[6] <= 1.5\nentropy = 0.954\nsamples = 96\nvalue = [60, 36]"] ;
1202 -> 1203 ;
1204 [label="X[10] <= 0.022\nentropy = 0.75\nsamples = 28\nvalue = [22, 6]"] ;
1203 -> 1204 ;
1205 [label="X[2] <= 0.085\nentropy = 0.691\nsamples = 27\nvalue = [22, 5]"] ;
1204 -> 1205 ;
1206 [label="entropy = 0.0\nsamples = 9\nvalue = [9, 0]"] ;
1205 -> 1206 ;
1207 [label="X[6] <= 0.5\nentropy = 0.852\nsamples = 18\nvalue = [13, 5]"] ;
1205 -> 1207 ;
1208 [label="entropy = 0.0\nsamples = 1\nvalue = [0, 1]"] ;
1207 -> 1208 ;
1209 [label="X[12] <= 0.526\nentropy = 0.787\nsamples = 17\nvalue = [13, 4]"] ;
1207 -> 1209 ;
1210 [label="X[0] <= 0.199\nentropy = 0.946\nsamples = 11\nvalue = [7, 4]"] ;
1209 -> 1210 ;
1211 [label="X[2] <= 0.107\nentropy = 0.971\nsamples = 5\nvalue = [2, 3]"] ;
1210 -> 1211 ;
1212 [label="X[2] <= 0.09\nentropy = 0.918\nsamples = 3\nvalue = [2, 1]"] ;
1211 -> 1212 ;
1213 [label="entropy = 0.0\nsamples = 1\nvalue = [0, 1]"] ;
1212 -> 1213 ;
1214 [label="entropy = 0.0\nsamples = 2\nvalue = [2, 0]"] ;
1212 -> 1214 ;
1215 [label="entropy = 0.0\nsamples = 2\nvalue = [0, 2]"] ;
1211 -> 1215 ;
1216 [label="X[2] <= 0.102\nentropy = 0.65\nsamples = 6\nvalue = [5, 1]"] ;
1210 -> 1216 ;
1217 [label="X[12] <= 0.49\nentropy = 1.0\nsamples = 2\nvalue = [1, 1]"] ;
1216 -> 1217 ;
1218 [label="entropy = 0.0\nsamples = 1\nvalue = [1, 0]"] ;
1217 -> 1218 ;
1219 [label="entropy = 0.0\nsamples = 1\nvalue = [0, 1]"] ;
1217 -> 1219 ;
1220 [label="entropy = 0.0\nsamples = 4\nvalue = [4, 0]"] ;
1216 -> 1220 ;
1221 [label="entropy = 0.0\nsamples = 6\nvalue = [6, 0]"] ;
1209 -> 1221 ;
1222 [label="entropy = 0.0\nsamples = 1\nvalue = [0, 1]"] ;
1204 -> 1222 ;
1223 [label="X[6] <= 2.5\nentropy = 0.99\nsamples = 68\nvalue = [38, 30]"] ;
1203 -> 1223 ;
